{"learner":{"attributes":{"scikit_learn":"{\"_estimator_type\": \"classifier\"}"},"feature_names":["promedio_semestral","num_materias_cursadas","num_materias_reprobadas","edad","num_est_economico","es_foraneo","experiencia_laboral","num_grupo_fam","posicion_hermanos","pago_tardio","dias_retraso_pago","diferencia_promedio_anterior","antiguedad_estudiante","genero_Masculino","etnia_amarilla","etnia_blanca","etnia_mestiza","etnia_negra","estado_civil_Pendiente","estado_civil_Soltero","estado_civil_Union_libre"],"feature_types":["float","float","float","float","float","float","float","float","float","float","float","float","float","float","float","float","float","float","float","float","float"],"gradient_booster":{"model":{"gbtree_model_param":{"num_parallel_tree":"1","num_trees":"100"},"iteration_indptr":[0,1,2,3,4,5,6,7,8,9,10,11,12,13,14,15,16,17,18,19,20,21,22,23,24,25,26,27,28,29,30,31,32,33,34,35,36,37,38,39,40,41,42,43,44,45,46,47,48,49,50,51,52,53,54,55,56,57,58,59,60,61,62,63,64,65,66,67,68,69,70,71,72,73,74,75,76,77,78,79,80,81,82,83,84,85,86,87,88,89,90,91,92,93,94,95,96,97,98,99,100],"tree_info":[0,0,0,0,0,0,0,0,0,0,0,0,0,0,0,0,0,0,0,0,0,0,0,0,0,0,0,0,0,0,0,0,0,0,0,0,0,0,0,0,0,0,0,0,0,0,0,0,0,0,0,0,0,0,0,0,0,0,0,0,0,0,0,0,0,0,0,0,0,0,0,0,0,0,0,0,0,0,0,0,0,0,0,0,0,0,0,0,0,0,0,0,0,0,0,0,0,0,0,0],"trees":[{"base_weights":[-1.6364288E-8,1.3227665E0,-2.3700915E-1,1.5441835E0,3.6249682E-1,-8.130258E-1,6.62624E-1,-1.2727273E-1,1.5683053E0,8.650345E-1,-3.1125775E-1,-9.985888E-1,5.929043E-1,1.4908643E0,3.9614126E-1,1.6894736E0,1.2073523E0,-6.778958E-2,1.2188715E0,-5.977012E-1,1.3092206E-1,3.6548927E-1,-1.1942748E0,-7.828137E-1,7.962955E-1,6.660108E-1,1.8173335E0,1.0033299E0,-1.4143708E-1,6.909933E-1,1.7218596E0,1.2795616E0,-1.20000005E-1,7.820359E-1,-1.5294118E-1,1.4149499E0,3.5875088E-1,-1.7894737E-1,1.9787358E-1,-5.7544935E-1,1.2066355E0,-8.118432E-1,-1.438841E0,-1.7948718E-1,5.256863E-1,-1.5294118E-1,8.803865E-1,-2.7093413E-1,9.3744624E-1,1.8310691E-1,6.870007E-2,-1.6914485E-1,1.1481786E0,-1.1355218E0,-1.8213281E-2,-1.1111112E-1,1.2174516E0,1.8600158E-1,1.4718959E0,6.928638E-1,1.6155237E0,1.3484685E-1,-1.1111112E-1,1.5617715E-1,1.6048458E0,-1.3333334E-1,1.5113513E-1,-1.3333334E-1,5.36469E-1,1.7116992E-1,-1.4595674E0,1.3753874E0,-6.461764E-1,-1.3964723E0,-4.4654942E-1,-1.6796678E0,-8.8971764E-1,1.2174516E0,-1.2727273E-1,9.4859487E-1,-1.4285715E-1,-1.724138E-1,1.6453512E-1,1.2843984E0,-3.747811E-1,6.919877E-1,-7.828137E-1,1.6881287E0,9.364413E-1,-1.8367347E-1,-6.414925E-1,6.841163E-2,-1.8260871E-1,1.5113513E-1,4.832215E-2,8.342321E-2,1.5456472E-1,-3.747811E-2,1.174379E-1,1.5617715E-2,1.7166306E-1,-1.1111112E-1,1.214596E-1,1.7405653E-1,4.832215E-2,-1.1111112E-1,8.067132E-2,-5.7134073E-2,7.282532E-2,-1.8987343E-1,-1.6755996E-2,8.443182E-2,1.8968587E-1,-1.5555556E-1,1.214596E-1,-1.7504834E-1,-7.160518E-2,-3.2128405E-2,-1.8769231E-1,3.7951346E-2,-1.7262033E-1,-6.718128E-2,-1.7405148E-1,4.832215E-2,1.5113513E-1,9.9829525E-2,-1.2727273E-1,2.2963358E-3,1.422318E-1,1.3092206E-1,-1.6363637E-1,-3.7790444E-2,1.2670271E-1,-1.3603042E-1,8.21894E-2,1.7558077E-1,1.0789608E-1,9.111329E-3,1.0813601E-1,9.675651E-2,-1.0928642E-1,-7.442659E-2,2.1099174E-2],"categories":[],"categories_nodes":[],"categories_segments":[],"categories_sizes":[],"default_left":[0,0,0,0,0,0,0,0,0,0,0,0,0,0,0,0,0,0,0,0,0,0,0,0,0,0,0,0,0,0,0,0,0,0,0,0,0,0,0,0,0,0,0,0,0,0,0,0,0,0,0,0,0,0,0,0,0,0,0,0,0,0,0,0,0,0,0,0,0,0,0,0,0,0,0,0,0,0,0,0,0,0,0,0,0,0,0,0,0,0,0,0,0,0,0,0,0,0,0,0,0,0,0,0,0,0,0,0,0,0,0,0,0,0,0,0,0,0,0,0,0,0,0,0,0,0,0,0,0,0,0,0,0,0,0,0,0,0,0,0,0,0,0],"id":0,"left_children":[1,3,5,7,9,11,13,-1,15,17,19,21,23,25,27,29,31,33,35,37,-1,39,41,43,45,47,49,51,53,55,57,59,-1,61,-1,63,65,-1,67,69,71,73,75,-1,77,-1,79,81,83,-1,-1,85,87,89,91,-1,93,-1,95,97,99,-1,-1,101,103,-1,-1,-1,105,107,109,111,113,115,117,119,121,123,-1,125,-1,-1,-1,127,129,131,133,135,137,-1,139,141,-1,-1,-1,-1,-1,-1,-1,-1,-1,-1,-1,-1,-1,-1,-1,-1,-1,-1,-1,-1,-1,-1,-1,-1,-1,-1,-1,-1,-1,-1,-1,-1,-1,-1,-1,-1,-1,-1,-1,-1,-1,-1,-1,-1,-1,-1,-1,-1,-1,-1,-1],"loss_changes":[6.580528E2,6.725427E1,9.229699E2,1.9586304E1,2.094628E1,2.8382947E2,1.5289056E2,0E0,9.205872E0,1.17153225E1,1.323413E1,2.5654358E2,3.6218525E1,4.4276306E1,1.7231671E2,4.9541626E0,1.3378059E1,1.4411483E1,3.8105202E0,2.2618694E1,0E0,9.657042E1,7.733276E1,2.3309776E1,2.311802E1,1.28366375E1,6.1190796E-1,4.2282745E1,3.4357834E1,8.600453E0,3.5944214E0,1.2013222E1,0E0,9.422227E0,0E0,4.6522408E0,1.389814E1,0E0,8.483009E0,3.8439224E1,2.09879E1,6.9782684E1,6.603418E1,0E0,1.1675525E1,0E0,1.8375587E1,3.59458E1,1.8048935E1,0E0,0E0,1.5402606E1,2.3651642E1,9.538532E0,3.9388912E1,0E0,6.48448E-1,0E0,2.0054626E0,1.3812091E1,5.8722E0,0E0,0E0,6.441826E0,1.8555527E0,0E0,0E0,0E0,6.676704E0,1.3760555E1,1.4770847E1,1.4803307E1,1.2120875E1,2.9171066E1,3.601514E1,3.45614E1,2.8085838E1,6.48448E-1,0E0,1.2925865E1,0E0,0E0,0E0,5.3159637E0,2.0929209E1,8.004494E0,1.6769474E1,6.172638E-1,1.9597778E1,0E0,1.5354907E1,2.7991354E1,0E0,0E0,0E0,0E0,0E0,0E0,0E0,0E0,0E0,0E0,0E0,0E0,0E0,0E0,0E0,0E0,0E0,0E0,0E0,0E0,0E0,0E0,0E0,0E0,0E0,0E0,0E0,0E0,0E0,0E0,0E0,0E0,0E0,0E0,0E0,0E0,0E0,0E0,0E0,0E0,0E0,0E0,0E0,0E0,0E0,0E0,0E0,0E0,0E0,0E0,0E0],"parents":[2147483647,0,0,1,1,2,2,3,3,4,4,5,5,6,6,8,8,9,9,10,10,11,11,12,12,13,13,14,14,15,15,16,16,17,17,18,18,19,19,21,21,22,22,23,23,24,24,25,25,26,26,27,27,28,28,29,29,30,30,31,31,33,33,35,35,36,36,38,38,39,39,40,40,41,41,42,42,44,44,46,46,47,47,48,48,51,51,52,52,53,53,54,54,56,56,58,58,59,59,60,60,63,63,64,64,68,68,69,69,70,70,71,71,72,72,73,73,74,74,75,75,76,76,77,77,79,79,83,83,84,84,85,85,86,86,87,87,88,88,90,90,91,91],"right_children":[2,4,6,8,10,12,14,-1,16,18,20,22,24,26,28,30,32,34,36,38,-1,40,42,44,46,48,50,52,54,56,58,60,-1,62,-1,64,66,-1,68,70,72,74,76,-1,78,-1,80,82,84,-1,-1,86,88,90,92,-1,94,-1,96,98,100,-1,-1,102,104,-1,-1,-1,106,108,110,112,114,116,118,120,122,124,-1,126,-1,-1,-1,128,130,132,134,136,138,-1,140,142,-1,-1,-1,-1,-1,-1,-1,-1,-1,-1,-1,-1,-1,-1,-1,-1,-1,-1,-1,-1,-1,-1,-1,-1,-1,-1,-1,-1,-1,-1,-1,-1,-1,-1,-1,-1,-1,-1,-1,-1,-1,-1,-1,-1,-1,-1,-1,-1,-1,-1,-1],"split_conditions":[4E0,1E0,2E0,2.2E1,1.7513868E0,1E1,1E0,-1.2727273E-1,3E0,2.6E1,4.9E1,1E0,3.7333333E0,-1E0,2.2333333E0,2.4E1,4E1,5E0,4E0,1.9857143E0,1.3092206E-1,-2E0,3E0,6E0,2.3E1,3E0,5E0,2E1,1.9E1,2.524674E0,6E-2,9E0,-1.20000005E-1,1E0,-1.5294118E-1,0E0,2E0,-1.7894737E-1,2E0,6E0,2.4E-1,2.1E1,2.6E1,-1.7948718E-1,2.524674E0,-1.5294118E-1,1E0,4E1,2.7E1,1.8310691E-1,6.870007E-2,2E0,2E0,2.94E0,5E0,-1.1111112E-1,1.7513868E0,1.8600158E-1,2.0333333E-1,2.524674E0,3E0,1.3484685E-1,-1.1111112E-1,2E0,3.14E0,-1.3333334E-1,1.5113513E-1,-1.3333334E-1,-5.8E-1,8E-2,7E0,0E0,5E0,1E0,4.366667E0,-8.167488E-1,4.3333335E0,3.2E1,-1.2727273E-1,4.6E1,-1.4285715E-1,-1.724138E-1,1.6453512E-1,2E0,-2.0333333E0,2.524674E0,5E0,1E0,2E0,-1.8367347E-1,2.9666667E0,-7.75E-1,-1.8260871E-1,1.5113513E-1,4.832215E-2,8.342321E-2,1.5456472E-1,-3.747811E-2,1.174379E-1,1.5617715E-2,1.7166306E-1,-1.1111112E-1,1.214596E-1,1.7405653E-1,4.832215E-2,-1.1111112E-1,8.067132E-2,-5.7134073E-2,7.282532E-2,-1.8987343E-1,-1.6755996E-2,8.443182E-2,1.8968587E-1,-1.5555556E-1,1.214596E-1,-1.7504834E-1,-7.160518E-2,-3.2128405E-2,-1.8769231E-1,3.7951346E-2,-1.7262033E-1,-6.718128E-2,-1.7405148E-1,4.832215E-2,1.5113513E-1,9.9829525E-2,-1.2727273E-1,2.2963358E-3,1.422318E-1,1.3092206E-1,-1.6363637E-1,-3.7790444E-2,1.2670271E-1,-1.3603042E-1,8.21894E-2,1.7558077E-1,1.0789608E-1,9.111329E-3,1.0813601E-1,9.675651E-2,-1.0928642E-1,-7.442659E-2,2.1099174E-2],"split_indices":[1,2,2,3,8,12,12,0,1,3,3,12,0,12,0,3,3,12,4,0,0,12,12,1,3,7,8,3,3,4,11,12,0,16,0,12,2,0,4,1,11,3,3,0,4,0,2,3,3,0,0,12,12,0,8,0,8,0,11,4,7,0,0,1,0,0,0,0,11,11,1,12,8,5,0,11,0,3,0,3,0,0,0,4,11,4,7,17,4,0,0,11,0,0,0,0,0,0,0,0,0,0,0,0,0,0,0,0,0,0,0,0,0,0,0,0,0,0,0,0,0,0,0,0,0,0,0,0,0,0,0,0,0,0,0,0,0,0,0,0,0,0,0],"split_type":[0,0,0,0,0,0,0,0,0,0,0,0,0,0,0,0,0,0,0,0,0,0,0,0,0,0,0,0,0,0,0,0,0,0,0,0,0,0,0,0,0,0,0,0,0,0,0,0,0,0,0,0,0,0,0,0,0,0,0,0,0,0,0,0,0,0,0,0,0,0,0,0,0,0,0,0,0,0,0,0,0,0,0,0,0,0,0,0,0,0,0,0,0,0,0,0,0,0,0,0,0,0,0,0,0,0,0,0,0,0,0,0,0,0,0,0,0,0,0,0,0,0,0,0,0,0,0,0,0,0,0,0,0,0,0,0,0,0,0,0,0,0,0],"sum_hessian":[2.097E3,3.1794467E2,1.7790553E3,2.578761E2,6.0068584E1,1.0846637E3,6.943916E2,1.75E0,2.561261E2,3.4243362E1,2.5825222E1,9.584513E2,1.2621239E2,1.6791371E2,5.2647784E2,1.89E2,6.712611E1,9.63938E0,2.4603981E1,2.24823E1,3.3429203E0,1.2013717E2,8.3831415E2,1.588938E1,1.10323006E2,4.8475662E1,1.1943805E2,2.4682523E2,2.7965265E2,6.6393805E0,1.8236061E2,6.562611E1,1.5E0,6.3893805E0,3.25E0,1.9511063E1,5.0929203E0,8.5E0,1.3982301E1,5.685398E1,6.3283184E1,3.28677E2,5.0963718E2,8.75E0,7.1393805E0,3.25E0,1.07073006E2,1.088938E1,3.758628E1,1.17391594E2,2.0464602E0,2.7121681E1,2.1970354E2,2.993584E1,2.4971681E2,1.25E0,5.3893805E0,1.1329867E2,6.906194E1,2.5011063E1,4.0615044E1,5.1393805E0,1.25E0,2.7964602E0,1.6714602E1,2E0,3.0929203E0,2E0,1.1982301E1,3.1261063E1,2.559292E1,5.8236725E1,5.04646E0,1.25307526E2,2.0336946E2,3.5283627E2,1.5680089E2,5.3893805E0,1.75E0,1.04573006E2,2.5E0,6.25E0,4.6393805E0,2.9743362E1,7.8429203E0,1.1232301E1,1.588938E1,5.9922565E1,1.5978098E2,1.125E1,1.868584E1,2.3921681E2,1.05E1,3.0929203E0,2.2964602E0,8.435841E0,6.0626106E1,7.8429203E0,1.716814E1,2.7964602E0,3.7818584E1,1.25E0,1.5464602E0,1.4418141E1,2.2964602E0,1.25E0,1.0732301E1,1.338938E1,1.7871681E1,1.875E1,6.8429203E0,3.0150442E1,2.8086283E1,3.5E0,1.5464602E0,8.138938E1,4.391814E1,1.8811946E2,1.525E1,7.6393805E0,3.451969E2,1.26254425E2,3.054646E1,2.2964602E0,3.0929203E0,1.02823006E2,1.75E0,3.0464602E0,2.6696903E1,3.3429203E0,4.5E0,4.04646E0,7.1858406E0,1.179646E1,4.0929203E0,5.2236725E1,7.6858406E0,2.3621681E1,1.3615929E2,3.8429203E0,1.484292E1,3.5075222E1,2.0414159E2],"tree_param":{"num_deleted":"0","num_feature":"21","num_nodes":"143","size_leaf_vector":"1"}},{"base_weights":[-2.0783876E-4,1.1998231E0,-2.1472253E-1,1.401534E0,3.264468E-1,-7.3623526E-1,5.991209E-1,-1.1949158E-1,1.4239308E0,7.86454E-1,-2.8936714E-1,-9.038462E-1,5.3188646E-1,1.3541838E0,3.5740498E-1,1.5347313E0,1.094579E0,-7.347861E-2,1.1133877E0,-5.5501366E-1,1.21257655E-1,3.308575E-1,-1.0809865E0,-7.1516764E-1,7.157153E-1,6.047329E-1,1.6516403E0,-8.716988E-2,9.7523105E-1,6.354542E-1,1.5639311E0,1.1618048E0,-1.1305224E-1,7.171795E-1,-1.4301492E-1,1.2926477E0,3.272997E-1,-1.6414843E-1,1.6748764E-1,-5.2321917E-1,1.0956147E0,-5.923875E-1,-1.2386477E0,-1.6460586E-1,4.8360598E-1,-1.4190052E-1,7.9286397E-1,-2.461871E-1,8.5068136E-1,1.6637655E-1,6.413775E-2,-7.539384E-1,8.683707E-2,1.0273887E0,-1.6135232E-1,-1.0512451E-1,1.1304157E0,1.683633E-1,1.3200632E0,6.282321E-1,1.468644E0,1.3840352E-1,-1.14098266E-1,1.4366938E-1,1.4663774E0,-1.2482635E-1,1.4033921E-1,-1.2482635E-1,4.812918E-1,1.5471657E-1,-1.3302085E0,5.9315264E-1,1.6684271E0,-1.1932957E0,-1.7785853E-2,-1.4220715E0,-7.6549935E-1,1.1304157E0,-1.1949158E-1,8.5568357E-1,-1.33154E-1,-1.585983E-1,1.5187144E-1,1.0174911E0,-1.2774749E-1,-2.8751E-1,-1.3964025E0,-1.121949E-1,7.569832E-1,3.1320995E-3,1.1597676E0,4.0259033E-2,1.4395124E-1,-1.5892906E-2,1.402098E-1,1.4101282E-1,2.7584515E-3,1.4467997E-2,1.5609477E-1,-1.0512451E-1,1.1434793E-1,1.5894084E-1,4.497474E-2,-1.0512451E-1,7.340491E-2,-2.8580187E-2,1.0648932E-1,-1.7337608E-1,-1.5295016E-2,7.85989E-2,-1.4071867E-1,1.7236674E-1,6.1990496E-2,-1.8047531E-1,-9.036501E-2,1.5072762E-2,-1.6658273E-1,3.1906974E-2,-1.4769849E-1,-5.6393445E-2,-1.603573E-1,4.0259033E-2,1.4395124E-1,9.0173066E-2,-1.1949158E-1,-1.4423892E-2,1.1378324E-1,-1.0248011E-1,2.498396E-2,-8.5659415E-2,-1.7878196E-1,2.6623983E-2,-4.1222703E-2,-4.3426476E-2,9.739808E-2,3.0315582E-2,-1.4892338E-1,1.2733874E-1,3.1707317E-2],"categories":[],"categories_nodes":[],"categories_segments":[],"categories_sizes":[],"default_left":[0,0,0,0,0,0,0,0,0,0,0,0,0,0,0,0,0,0,0,0,0,0,0,0,0,0,0,0,0,0,0,0,0,0,0,0,0,0,0,0,0,0,0,0,0,0,0,0,0,0,0,0,0,0,0,0,0,0,0,0,0,0,0,0,0,0,0,0,0,0,0,0,0,0,0,0,0,0,0,0,0,0,0,0,0,0,0,0,0,0,0,0,0,0,0,0,0,0,0,0,0,0,0,0,0,0,0,0,0,0,0,0,0,0,0,0,0,0,0,0,0,0,0,0,0,0,0,0,0,0,0,0,0,0,0,0,0,0,0],"id":1,"left_children":[1,3,5,7,9,11,13,-1,15,17,19,21,23,25,27,29,31,33,35,37,-1,39,41,43,45,47,49,51,53,55,57,59,-1,61,-1,63,65,-1,67,69,71,73,75,-1,77,-1,79,81,83,-1,-1,85,87,89,-1,-1,91,-1,93,95,97,-1,-1,99,101,-1,-1,-1,103,105,107,109,111,113,115,117,119,121,-1,123,-1,-1,-1,125,-1,127,129,131,133,135,137,-1,-1,-1,-1,-1,-1,-1,-1,-1,-1,-1,-1,-1,-1,-1,-1,-1,-1,-1,-1,-1,-1,-1,-1,-1,-1,-1,-1,-1,-1,-1,-1,-1,-1,-1,-1,-1,-1,-1,-1,-1,-1,-1,-1,-1,-1,-1,-1],"loss_changes":[5.3796515E2,5.5373444E1,7.529049E2,1.6655426E1,1.7440842E1,2.30237E2,1.25984314E2,0E0,7.640625E0,9.936165E0,1.1331152E1,2.092583E2,2.9585064E1,3.6381165E1,1.446328E2,3.95932E0,1.1452492E1,1.2388717E1,3.1643105E0,1.8631178E1,0E0,7.9346146E1,6.362921E1,1.9536129E1,1.9410465E1,1.0510172E1,3.9620972E-1,3.5679443E1,3.1403595E1,7.5470676E0,3.0906372E0,9.929909E0,0E0,1.0697651E1,0E0,3.8597107E0,1.2037197E1,0E0,7.2435484E0,3.1745869E1,1.7416687E1,7.1020676E1,5.365387E1,0E0,1.0159315E1,0E0,1.5525406E1,3.0339176E1,1.4934353E1,0E0,0E0,1.8666496E1,3.267333E1,2.9360031E1,0E0,0E0,8.536148E-1,0E0,8.055359E0,1.2148009E1,4.825905E0,0E0,0E0,5.7262626E0,1.4870949E0,0E0,0E0,0E0,5.792239E0,1.3225536E1,1.2288696E1,1.4845819E1,6.304245E-1,1.6178482E1,2.9742504E1,4.38208E1,2.9229057E1,8.536148E-1,0E0,1.1021317E1,0E0,0E0,0E0,5.221176E0,0E0,1.5360765E1,4.0689507E0,2.1597622E1,1.4918777E1,1.19981985E1,1.7957916E1,0E0,0E0,0E0,0E0,0E0,0E0,0E0,0E0,0E0,0E0,0E0,0E0,0E0,0E0,0E0,0E0,0E0,0E0,0E0,0E0,0E0,0E0,0E0,0E0,0E0,0E0,0E0,0E0,0E0,0E0,0E0,0E0,0E0,0E0,0E0,0E0,0E0,0E0,0E0,0E0,0E0,0E0,0E0,0E0,0E0,0E0,0E0,0E0],"parents":[2147483647,0,0,1,1,2,2,3,3,4,4,5,5,6,6,8,8,9,9,10,10,11,11,12,12,13,13,14,14,15,15,16,16,17,17,18,18,19,19,21,21,22,22,23,23,24,24,25,25,26,26,27,27,28,28,29,29,30,30,31,31,33,33,35,35,36,36,38,38,39,39,40,40,41,41,42,42,44,44,46,46,47,47,48,48,51,51,52,52,53,53,56,56,58,58,59,59,60,60,63,63,64,64,68,68,69,69,70,70,71,71,72,72,73,73,74,74,75,75,76,76,77,77,79,79,83,83,85,85,86,86,87,87,88,88,89,89,90,90],"right_children":[2,4,6,8,10,12,14,-1,16,18,20,22,24,26,28,30,32,34,36,38,-1,40,42,44,46,48,50,52,54,56,58,60,-1,62,-1,64,66,-1,68,70,72,74,76,-1,78,-1,80,82,84,-1,-1,86,88,90,-1,-1,92,-1,94,96,98,-1,-1,100,102,-1,-1,-1,104,106,108,110,112,114,116,118,120,122,-1,124,-1,-1,-1,126,-1,128,130,132,134,136,138,-1,-1,-1,-1,-1,-1,-1,-1,-1,-1,-1,-1,-1,-1,-1,-1,-1,-1,-1,-1,-1,-1,-1,-1,-1,-1,-1,-1,-1,-1,-1,-1,-1,-1,-1,-1,-1,-1,-1,-1,-1,-1,-1,-1,-1,-1,-1,-1],"split_conditions":[4E0,1E0,2E0,2.2E1,1.7513868E0,1E1,1E0,-1.1949158E-1,3E0,2.6E1,4.9E1,1E0,3.7333333E0,-1E0,4E0,2.4E1,4E1,1E0,4E0,1.9857143E0,1.21257655E-1,-2E0,2E0,6E0,2.3E1,3E0,5E0,2E1,3.8E-1,2.524674E0,1.0666667E-1,9E0,-1.1305224E-1,1E0,-1.4301492E-1,0E0,2E0,-1.6414843E-1,2E0,6E0,0E0,2.2E1,2.6E1,-1.6460586E-1,2.524674E0,-1.4190052E-1,1E0,4E1,2.9E1,1.6637655E-1,6.413775E-2,1E0,5E0,2E1,-1.6135232E-1,-1.0512451E-1,1.0666667E-1,1.683633E-1,2.0333333E-1,-1E0,3E0,1.3840352E-1,-1.14098266E-1,2E0,3.14E0,-1.2482635E-1,1.4033921E-1,-1.2482635E-1,-5.8E-1,5E0,7E0,1E0,3E0,1.9E1,4.3333335E0,2.96E0,4.3333335E0,1E0,-1.1949158E-1,4.6E1,-1.33154E-1,-1.585983E-1,1.5187144E-1,-6E0,-1.2774749E-1,1.9E1,2.524674E0,2.68E0,-7.5E-1,1.9857143E0,1E0,4.0259033E-2,1.4395124E-1,-1.5892906E-2,1.402098E-1,1.4101282E-1,2.7584515E-3,1.4467997E-2,1.5609477E-1,-1.0512451E-1,1.1434793E-1,1.5894084E-1,4.497474E-2,-1.0512451E-1,7.340491E-2,-2.8580187E-2,1.0648932E-1,-1.7337608E-1,-1.5295016E-2,7.85989E-2,-1.4071867E-1,1.7236674E-1,6.1990496E-2,-1.8047531E-1,-9.036501E-2,1.5072762E-2,-1.6658273E-1,3.1906974E-2,-1.4769849E-1,-5.6393445E-2,-1.603573E-1,4.0259033E-2,1.4395124E-1,9.0173066E-2,-1.1949158E-1,-1.4423892E-2,1.1378324E-1,-1.0248011E-1,2.498396E-2,-8.5659415E-2,-1.7878196E-1,2.6623983E-2,-4.1222703E-2,-4.3426476E-2,9.739808E-2,3.0315582E-2,-1.4892338E-1,1.2733874E-1,3.1707317E-2],"split_indices":[1,2,2,3,8,12,12,0,1,3,3,12,0,12,2,3,3,16,4,0,0,12,12,1,3,7,8,3,11,4,11,12,0,15,0,12,2,0,4,1,12,3,3,0,4,0,2,3,3,0,0,16,7,3,0,0,11,0,11,12,7,0,0,1,0,0,0,0,11,7,1,17,8,3,0,0,0,17,0,3,0,0,0,12,0,3,4,0,11,0,17,0,0,0,0,0,0,0,0,0,0,0,0,0,0,0,0,0,0,0,0,0,0,0,0,0,0,0,0,0,0,0,0,0,0,0,0,0,0,0,0,0,0,0,0,0,0,0,0],"split_type":[0,0,0,0,0,0,0,0,0,0,0,0,0,0,0,0,0,0,0,0,0,0,0,0,0,0,0,0,0,0,0,0,0,0,0,0,0,0,0,0,0,0,0,0,0,0,0,0,0,0,0,0,0,0,0,0,0,0,0,0,0,0,0,0,0,0,0,0,0,0,0,0,0,0,0,0,0,0,0,0,0,0,0,0,0,0,0,0,0,0,0,0,0,0,0,0,0,0,0,0,0,0,0,0,0,0,0,0,0,0,0,0,0,0,0,0,0,0,0,0,0,0,0,0,0,0,0,0,0,0,0,0,0,0,0,0,0,0,0],"sum_hessian":[2.0877986E3,3.1591638E2,1.7718822E3,2.56152E2,5.9764397E1,1.0799458E3,6.9193634E2,1.7429323E0,2.5440907E2,3.40513E1,2.5713097E1,9.5412396E2,1.25821815E2,1.6667648E2,5.252599E2,1.8762758E2,6.678149E1,9.593307E0,2.4457993E1,2.238446E1,3.3286362E0,1.1960252E2,8.345215E2,1.57932825E1,1.10028534E2,4.8219345E1,1.1845714E2,3.0595786E2,2.1930202E2,6.6165953E0,1.8101099E2,6.528687E1,1.4946129E0,6.3588066E0,3.2344997E0,1.939153E1,5.0664625E0,8.432314E0,1.3952147E1,5.665092E1,6.2951603E1,2.0474985E2,6.297716E2,8.679905E0,7.1133776E0,3.2310684E0,1.0679747E2,1.0811904E1,3.740744E1,1.16413086E2,2.0440474E0,6.2631298E1,2.4332655E2,2.1556206E2,3.739961E0,1.2461498E0,5.3704453E0,1.174548E2,6.3556183E1,2.494925E1,4.0337624E1,4.867221E0,1.4915856E0,2.7869205E0,1.660461E1,1.9911375E0,3.0753253E0,1.9911375E0,1.1961009E1,3.1226465E1,2.5424456E1,3.4619465E1,2.8332136E1,9.955756E1,1.0519228E2,4.5238974E2,1.7738188E2,5.3704453E0,1.7429323E0,1.0431018E2,2.487288E0,6.2037816E0,4.6081223E0,3.5172436E1,2.235005E0,3.712563E1,2.5505669E1,1.8824945E2,5.5077103E1,2.4788618E1,1.9077344E2,2.287225E0,3.0832205E0,3.2907314E0,6.026545E1,1.0253728E1,1.4695521E1,2.7962897E0,3.7541332E1,1.2461498E0,1.5407706E0,1.4309489E1,2.29512E0,1.2461498E0,1.0714859E1,2.1504465E1,9.722001E0,1.8582016E1,6.8424397E0,3.2129223E1,2.4902434E0,2.6302517E1,2.02962E0,3.0319855E1,6.923771E1,9.625834E1,8.933946E0,1.3684493E1,4.3870523E2,1.4433968E2,3.3042206E1,2.287225E0,3.0832205E0,1.02567245E2,1.7429323E0,3.2828119E0,3.1889624E1,1.5268609E1,2.1857021E1,1.2060846E1,1.3444823E1,8.329762E1,1.0495183E2,8.332587E0,4.6744514E1,2.130279E1,3.4858284E0,1.6765729E2,2.3116161E1],"tree_param":{"num_deleted":"0","num_feature":"21","num_nodes":"139","size_leaf_vector":"1"}},{"base_weights":[-6.4562616E-4,1.1001879E0,-1.9609357E-1,1.2864978E0,2.9647315E-1,-5.4388916E-1,8.221394E-1,-4.6405968E-1,1.3181853E0,7.221891E-1,-2.7133536E-1,5.5391634E-1,-7.1556896E-1,1.2111553E0,4.7566727E-1,-1.2986486E-1,5.864186E-2,1.4224646E0,1.0126173E0,-7.824703E-2,1.0274421E0,-5.195419E-1,1.1298112E-1,-3.580843E-1,1.1460437E0,-8.7061715E-1,4.253458E-1,-1.4063218E-1,1.2521931E0,-7.53569E-1,6.3973683E-1,1.5541969E-1,1.2015978E0,1.0762594E0,-1.0694325E-1,6.565215E-1,-1.3366576E-1,1.1932038E0,3.0093005E-1,-1.5248454E-1,1.4100821E-1,9.478332E-2,-9.584883E-1,6.5245056E-1,1.5568155E0,-5.314068E-1,-1.1319318E0,-4.425149E-1,6.610046E-1,1.2797806E0,-1.2772839E-1,8.3184755E-1,-1.0523918E0,9.7803E-1,2.61093E-1,1.2663169E0,4.7117457E-1,5.7337916E-1,1.3716233E0,1.2848221E-1,-1.078858E-1,1.3273734E-1,1.3545955E0,-1.1750853E-1,1.313423E-1,-1.1750853E-1,4.3268475E-1,-3.7346378E-1,9.842724E-1,-1.2259619E0,4.81197E-1,4.1335994E-1,1.31735E0,1.58389E-1,5.2934714E-2,-1.0439016E0,-1.9427957E-1,-1.331724E0,-6.7229456E-1,-1.0744691E0,4.1362476E-1,-1.3013652E-1,7.2855234E-1,6.9749546E-1,1.3672405E0,2.7417868E-2,1.280906E-1,-1.4506781E0,3.9038152E-1,1.0385067E0,-1.3491423E-1,-2.631427E-1,5.736335E-1,7.176906E-2,1.3552426E-1,-2.9180244E-2,1.11507796E-1,-3.966814E-2,1.0171223E-1,2.8661797E-2,1.4370815E-1,-9.978762E-2,1.0810935E-1,1.4694116E-1,4.1890796E-2,-9.978762E-2,6.6966906E-2,-7.732367E-2,8.885456E-2,1.9487524E-2,1.4223112E-1,-1.6068558E-1,-1.3962929E-2,8.996439E-4,1.0395713E-1,8.9097776E-2,-1.1181246E-2,1.5605919E-1,2.2605876E-2,-1.3399364E-1,-4.5511957E-2,3.0069841E-2,-4.8670776E-2,-2.1667054E-2,-1.4086422E-1,-4.9844548E-2,-1.458448E-1,1.2887965E-1,-1.3863252E-1,-1.2899023E-1,9.167847E-2,7.883116E-2,-1.2494468E-1,1.2049199E-3,1.1633336E-1,1.3927417E-1,-9.101571E-3,-1.7394902E-1,8.9039825E-2,1.15411E-1,-1.1676239E-1,1.1663654E-1,1.4083912E-2,-1.769511E-1,5.5483547E-3,-8.815101E-2,7.415482E-2],"categories":[],"categories_nodes":[],"categories_segments":[],"categories_sizes":[],"default_left":[0,0,0,0,0,0,0,0,0,0,0,0,0,0,0,0,0,0,0,0,0,0,0,0,0,0,0,0,0,0,0,0,0,0,0,0,0,0,0,0,0,0,0,0,0,0,0,0,0,0,0,0,0,0,0,0,0,0,0,0,0,0,0,0,0,0,0,0,0,0,0,0,0,0,0,0,0,0,0,0,0,0,0,0,0,0,0,0,0,0,0,0,0,0,0,0,0,0,0,0,0,0,0,0,0,0,0,0,0,0,0,0,0,0,0,0,0,0,0,0,0,0,0,0,0,0,0,0,0,0,0,0,0,0,0,0,0,0,0,0,0,0,0,0,0,0,0],"id":2,"left_children":[1,3,5,7,9,11,13,15,17,19,21,23,25,27,29,-1,-1,31,33,35,37,39,-1,41,43,45,47,-1,49,51,53,-1,55,57,-1,59,-1,61,63,-1,65,67,69,71,73,75,77,79,81,83,-1,85,87,89,91,93,95,97,99,-1,-1,101,103,-1,-1,-1,105,107,109,111,113,115,117,-1,-1,119,121,123,125,127,129,-1,131,133,135,-1,-1,137,139,141,-1,143,145,-1,-1,-1,-1,-1,-1,-1,-1,-1,-1,-1,-1,-1,-1,-1,-1,-1,-1,-1,-1,-1,-1,-1,-1,-1,-1,-1,-1,-1,-1,-1,-1,-1,-1,-1,-1,-1,-1,-1,-1,-1,-1,-1,-1,-1,-1,-1,-1,-1,-1,-1,-1,-1,-1],"loss_changes":[4.4476312E2,4.628946E1,6.2213E2,1.4630615E1,1.4688227E1,2.4713052E2,5.971933E1,5.349388E0,6.477661E0,8.519035E0,9.773922E0,9.6321075E1,2.007113E2,2.4327972E1,4.853456E1,0E0,0E0,3.4510193E0,9.988579E0,1.0553036E1,2.6604195E0,1.5571971E1,0E0,1.9308891E1,2.0866714E1,8.780542E1,2.8141243E1,0E0,1.6105835E1,1.4384975E1,2.6739532E1,0E0,2.8401184E0,8.900261E0,0E0,9.320748E0,0E0,3.2565327E0,1.0502929E1,0E0,6.21718E0,1.7527431E1,1.2326946E1,7.522068E0,7.801361E-1,7.510698E1,5.0758484E1,1.65013E1,1.519622E1,9.518799E0,0E0,9.2117786E-1,1.4607481E1,1.701461E1,1.6667517E1,2.25663E0,4.014903E0,1.1530525E1,2.45504E0,0E0,0E0,5.1110697E0,1.2448654E0,0E0,0E0,0E0,5.043089E0,1.46703415E1,4.7311497E0,1.0528053E1,1.4391159E0,9.826685E0,3.0882988E0,0E0,0E0,2.9496582E1,3.83814E1,3.3233704E1,2.2840614E1,1.4575348E1,1.2604382E1,0E0,1.3343563E1,9.212399E0,6.7365723E0,0E0,0E0,1.4639244E1,8.57507E0,1.2311043E1,0E0,1.8498814E1,1.6161678E1,0E0,0E0,0E0,0E0,0E0,0E0,0E0,0E0,0E0,0E0,0E0,0E0,0E0,0E0,0E0,0E0,0E0,0E0,0E0,0E0,0E0,0E0,0E0,0E0,0E0,0E0,0E0,0E0,0E0,0E0,0E0,0E0,0E0,0E0,0E0,0E0,0E0,0E0,0E0,0E0,0E0,0E0,0E0,0E0,0E0,0E0,0E0,0E0,0E0,0E0,0E0,0E0,0E0,0E0],"parents":[2147483647,0,0,1,1,2,2,3,3,4,4,5,5,6,6,7,7,8,8,9,9,10,10,11,11,12,12,13,13,14,14,17,17,18,18,19,19,20,20,21,21,23,23,24,24,25,25,26,26,28,28,29,29,30,30,32,32,33,33,35,35,37,37,38,38,40,40,41,41,42,42,43,43,44,44,45,45,46,46,47,47,48,48,49,49,51,51,52,52,53,53,54,54,55,55,56,56,57,57,58,58,61,61,62,62,66,66,67,67,68,68,69,69,70,70,71,71,72,72,75,75,76,76,77,77,78,78,79,79,80,80,82,82,83,83,84,84,87,87,88,88,89,89,91,91,92,92],"right_children":[2,4,6,8,10,12,14,16,18,20,22,24,26,28,30,-1,-1,32,34,36,38,40,-1,42,44,46,48,-1,50,52,54,-1,56,58,-1,60,-1,62,64,-1,66,68,70,72,74,76,78,80,82,84,-1,86,88,90,92,94,96,98,100,-1,-1,102,104,-1,-1,-1,106,108,110,112,114,116,118,-1,-1,120,122,124,126,128,130,-1,132,134,136,-1,-1,138,140,142,-1,144,146,-1,-1,-1,-1,-1,-1,-1,-1,-1,-1,-1,-1,-1,-1,-1,-1,-1,-1,-1,-1,-1,-1,-1,-1,-1,-1,-1,-1,-1,-1,-1,-1,-1,-1,-1,-1,-1,-1,-1,-1,-1,-1,-1,-1,-1,-1,-1,-1,-1,-1,-1,-1,-1,-1],"split_conditions":[4E0,1E0,3E0,2.3E1,1.7513868E0,1E0,2E0,4.2105265E0,3E0,2.6E1,4.9E1,-2E0,1E1,1.8E1,2E1,-1.2986486E-1,5.864186E-2,1.6666668E-2,4E1,1E0,4E0,1.9857143E0,1.1298112E-1,6E0,0E0,3E0,3.8166666E0,-1.4063218E-1,1E1,-2.6666667E0,1.68E0,1.5541969E-1,1E0,9E0,-1.0694325E-1,1E0,-1.3366576E-1,0E0,2E0,-1.5248454E-1,2E0,5E0,2E0,2.8E1,1.6666668E-2,2.1E1,2.6E1,3E1,2.3E1,-1E0,-1.2772839E-1,8.5E-1,2.78E0,3.8E-1,2E0,2.0333333E-1,1.4E1,2.524674E0,3E0,1.2848221E-1,-1.078858E-1,2E0,3.14E0,-1.1750853E-1,1.313423E-1,-1.1750853E-1,-5.8E-1,1E0,-6E0,7E0,4E1,2.1E1,4.266667E0,1.58389E-1,5.2934714E-2,1E0,3.44E0,-6.2E-1,4.3333335E0,1E0,-1.2E-1,-1.3013652E-1,1E0,3.5058053E0,5E0,2.7417868E-2,1.280906E-1,6E0,-7E-1,1E0,-1.3491423E-1,-1.2E0,2.1E1,7.176906E-2,1.3552426E-1,-2.9180244E-2,1.11507796E-1,-3.966814E-2,1.0171223E-1,2.8661797E-2,1.4370815E-1,-9.978762E-2,1.0810935E-1,1.4694116E-1,4.1890796E-2,-9.978762E-2,6.6966906E-2,-7.732367E-2,8.885456E-2,1.9487524E-2,1.4223112E-1,-1.6068558E-1,-1.3962929E-2,8.996439E-4,1.0395713E-1,8.9097776E-2,-1.1181246E-2,1.5605919E-1,2.2605876E-2,-1.3399364E-1,-4.5511957E-2,3.0069841E-2,-4.8670776E-2,-2.1667054E-2,-1.4086422E-1,-4.9844548E-2,-1.458448E-1,1.2887965E-1,-1.3863252E-1,-1.2899023E-1,9.167847E-2,7.883116E-2,-1.2494468E-1,1.2049199E-3,1.1633336E-1,1.3927417E-1,-9.101571E-3,-1.7394902E-1,8.9039825E-2,1.15411E-1,-1.1676239E-1,1.1663654E-1,1.4083912E-2,-1.769511E-1,5.5483547E-3,-8.815101E-2,7.415482E-2],"split_indices":[1,2,2,3,8,12,12,0,1,3,3,12,12,3,3,0,0,11,3,16,4,0,0,1,12,12,0,0,1,11,0,0,20,12,0,15,0,12,2,0,4,7,2,3,11,3,3,3,3,12,0,0,0,11,8,11,12,4,7,0,0,1,0,0,0,0,11,20,12,1,3,3,0,0,0,5,0,11,0,19,11,0,2,7,8,0,0,4,11,17,0,11,3,0,0,0,0,0,0,0,0,0,0,0,0,0,0,0,0,0,0,0,0,0,0,0,0,0,0,0,0,0,0,0,0,0,0,0,0,0,0,0,0,0,0,0,0,0,0,0,0,0,0,0,0,0,0],"split_type":[0,0,0,0,0,0,0,0,0,0,0,0,0,0,0,0,0,0,0,0,0,0,0,0,0,0,0,0,0,0,0,0,0,0,0,0,0,0,0,0,0,0,0,0,0,0,0,0,0,0,0,0,0,0,0,0,0,0,0,0,0,0,0,0,0,0,0,0,0,0,0,0,0,0,0,0,0,0,0,0,0,0,0,0,0,0,0,0,0,0,0,0,0,0,0,0,0,0,0,0,0,0,0,0,0,0,0,0,0,0,0,0,0,0,0,0,0,0,0,0,0,0,0,0,0,0,0,0,0,0,0,0,0,0,0,0,0,0,0,0,0,0,0,0,0,0,0],"sum_hessian":[2.0651665E3,3.1067932E2,1.7544873E3,2.517258E2,5.8953514E1,1.308136E3,4.4635126E2,4.2329693E0,2.4749283E2,3.3537098E1,2.5416416E1,1.7660567E2,1.1315303E3,2.0909053E2,2.3726073E2,2.2272267E0,2.0057428E0,1.8179695E2,6.569588E1,9.464058E0,2.407304E1,2.2126085E1,3.2903306E0,6.9679634E1,1.0692603E2,9.963633E2,1.3516702E2,2.7140448E0,2.0637648E2,2.7515682E1,2.0974506E2,1.1009553E2,7.170142E1,6.4216064E1,1.4798156E0,6.277188E0,3.1868703E0,1.9077848E1,4.9951916E0,8.2546835E0,1.3871402E1,4.020003E1,2.94796E1,4.974256E1,5.7183468E1,4.3488123E2,5.6148206E2,2.8677736E1,1.06489296E2,2.0463866E2,1.7378271E0,4.0808434E0,2.3434837E1,1.0993892E2,9.980613E1,6.519146E1,6.5099616E0,2.484935E1,3.936671E1,4.799237E0,1.4779509E0,2.7606611E0,1.6317186E1,1.9670434E0,3.028148E0,1.9670434E0,1.1904359E1,2.6716173E1,1.3483858E1,2.4986E1,4.493602E0,3.7779243E1,1.1963317E1,5.5187695E1,1.9957762E0,1.717276E2,2.6315363E2,3.900432E2,1.7143886E2,1.635234E1,1.2325396E1,2.9357345E0,1.0355356E2,2.7895128E1,1.7674353E2,2.538696E0,1.5421474E0,1.8360758E1,5.0740795E0,1.07694E2,2.2449207E0,3.733717E1,6.246896E1,1.0358072E1,5.4833385E1,3.2297611E0,3.2802007E0,7.832622E0,1.7016727E1,2.5458841E0,3.6820827E1,1.2355013E0,1.52516E0,1.4025717E1,2.29147E0,1.2355013E0,1.0668858E1,2.0583221E1,6.1329513E0,5.3276644E0,8.156194E0,1.8144836E1,6.841163E0,2.98521E0,1.5083917E0,1.9420624E1,1.8358622E1,9.431134E0,2.5321822E0,1.1342345E2,5.830415E1,9.7719925E1,1.654337E2,2.5415865E1,3.6462735E2,1.4173071E2,2.9708132E1,1.5411028E0,1.4811238E1,2.4538608E0,9.871534E0,1.0110058E2,2.452984E0,1.17021475E1,1.619298E1,1.7375002E2,2.9935157E0,1.6573147E1,1.7876122E0,3.578937E0,1.4951427E0,9.400512E1,1.3688876E1,5.7236977E0,3.1613472E1,6.0231104E0,5.644585E1],"tree_param":{"num_deleted":"0","num_feature":"21","num_nodes":"147","size_leaf_vector":"1"}},{"base_weights":[-5.277443E-4,1.0172534E0,-1.793584E-1,1.1911026E0,2.709038E-1,-6.1858976E-1,5.0219196E-1,-1.0883005E-1,1.2114033E0,6.682963E-1,-2.561789E-1,-7.5900126E-1,4.3452856E-1,1.1596054E0,2.9738167E-1,1.3106195E0,9.2106724E-1,-8.2721576E-2,9.5560765E-1,-4.8943874E-1,1.05777405E-1,-2.0485808E-1,-1.0473051E0,2.3366688E-2,8.517445E-1,5.0597936E-1,1.4273391E0,-6.901361E-2,8.144605E-1,5.350484E-1,1.3366033E0,9.8079866E-1,-1.0152151E-1,6.0705817E-1,-1.2605743E-1,1.1101418E0,2.7842632E-1,-1.4303903E-1,1.17695004E-1,-6.876928E-1,9.735387E-2,-1.2107878E0,-6.35938E-1,2.2915421E-1,-9.436283E-1,1.0738789E0,-1.1342413E-1,-2.3490725E-1,7.1949863E-1,1.0151488E0,1.4643887E0,-3.1784314E-1,2.924368E-1,8.602464E-1,-1.4281678E-1,-1.0133582E-1,1.0020825E0,1.4498188E-1,1.1110094E0,5.226991E-1,1.2529234E0,1.0698668E0,-9.1701426E-2,1.2309354E-1,1.2617316E0,-1.1113292E-1,1.2370825E-1,5.7105607E-1,-6.499081E-1,5.840342E-1,-1.018661E0,-5.834449E-1,2.9609632E-1,3.4518325E-1,-1.2617217E0,-4.4080672E-1,-1.3045431E0,-6.065487E-1,5.8100194E-1,1.5172942E-1,-1.8964848E-1,-9.004261E-2,1.1402334E0,-6.759194E-1,1.1189015E-1,-1.4686081E-1,1.3943735E-1,1.0224448E0,-4.061015E-1,1.4478439E-1,-3.313086E-1,1.4760293E-1,5.9895165E-2,-1.8413801E-1,-1.4560006E0,-5.996331E-2,8.9350307E-1,-6.758002E-3,9.73515E-1,3.2087274E-2,1.3034616E-1,-2.0220287E-2,1.1874675E-1,1.2548587E-1,-2.962412E-3,1.234405E-2,1.3353297E-1,4.713792E-2,1.2488659E-1,-9.4994985E-2,1.0258349E-1,1.3712746E-1,3.9042585E-2,-2.5393022E-2,1.0667365E-1,-1.4744814E-1,6.437915E-2,-7.8651026E-2,9.673513E-2,-1.1722109E-2,-1.18073575E-1,-4.4696582E-3,-1.0857111E-1,8.981247E-2,1.7347127E-3,7.2911054E-2,-1.243024E-1,-1.2880327E-1,1.3835354E-1,-9.251394E-2,-3.811507E-3,-1.4453125E-1,1.0659491E-1,-1.4610936E-1,4.6290334E-2,7.484152E-2,-1.20847695E-1,-1.2187105E-1,9.3308136E-2,1.23108916E-1,2.4176052E-2,-1.8452872E-1,9.3308136E-2,-9.245559E-3,1.1505721E-1,1.10013045E-1,-1.5095334E-1,-1.4987074E-1,9.5691495E-2,-1.2197844E-1,-3.041348E-3,-1.7426114E-1,-6.014027E-2,3.222384E-3,-1.527656E-1,1.1286129E-1,-7.196075E-2,2.5015378E-2,-1.3056742E-1,1.16145946E-1,5.2600205E-2],"categories":[],"categories_nodes":[],"categories_segments":[],"categories_sizes":[],"default_left":[0,0,0,0,0,0,0,0,0,0,0,0,0,0,0,0,0,0,0,0,0,0,0,0,0,0,0,0,0,0,0,0,0,0,0,0,0,0,0,0,0,0,0,0,0,0,0,0,0,0,0,0,0,0,0,0,0,0,0,0,0,0,0,0,0,0,0,0,0,0,0,0,0,0,0,0,0,0,0,0,0,0,0,0,0,0,0,0,0,0,0,0,0,0,0,0,0,0,0,0,0,0,0,0,0,0,0,0,0,0,0,0,0,0,0,0,0,0,0,0,0,0,0,0,0,0,0,0,0,0,0,0,0,0,0,0,0,0,0,0,0,0,0,0,0,0,0,0,0,0,0,0,0,0,0,0,0,0,0,0,0],"id":3,"left_children":[1,3,5,7,9,11,13,-1,15,17,19,21,23,25,27,29,31,33,35,37,-1,39,41,43,45,47,49,51,53,55,57,59,-1,61,-1,63,65,-1,67,69,71,73,75,77,79,81,83,85,87,89,91,93,95,97,-1,-1,99,-1,101,103,105,107,-1,109,111,-1,-1,113,115,117,119,121,123,125,127,129,131,133,135,137,-1,-1,139,141,-1,-1,-1,143,145,-1,147,-1,-1,149,151,153,155,157,159,-1,-1,-1,-1,-1,-1,-1,-1,-1,-1,-1,-1,-1,-1,-1,-1,-1,-1,-1,-1,-1,-1,-1,-1,-1,-1,-1,-1,-1,-1,-1,-1,-1,-1,-1,-1,-1,-1,-1,-1,-1,-1,-1,-1,-1,-1,-1,-1,-1,-1,-1,-1,-1,-1,-1,-1,-1,-1,-1,-1,-1,-1],"loss_changes":[3.7050507E2,3.9150482E1,5.186207E2,1.2722443E1,1.248093E1,1.5608401E2,9.1090515E1,0E0,5.843048E0,7.3688173E0,8.482011E0,1.4832648E2,2.1346237E1,2.7445923E1,9.8406494E1,2.913208E0,8.594379E0,9.10801E0,2.2563877E0,1.3165834E1,0E0,4.6677635E1,4.034326E1,1.2904107E1,1.3370029E1,7.8133497E0,2.4890137E-1,2.7502274E1,2.3342789E1,6.442092E0,2.8216553E0,7.3535805E0,0E0,6.0250535E0,0E0,2.7812061E0,9.221729E0,0E0,5.5050707E0,5.2404446E1,2.687329E1,3.501886E1,2.2382431E1,1.6047192E1,1.2168666E1,7.6198044E0,9.397022E0,2.5293139E1,1.3290567E1,7.8390703E0,1.4356995E-1,2.7272223E1,2.6483465E1,2.079486E1,0E0,0E0,8.685808E-1,0E0,6.4923706E0,1.0412312E1,3.519703E0,4.838562E-2,0E0,4.5788755E0,1.0780983E0,0E0,0E0,4.281275E0,7.291692E0,1.4448881E1,1.4184837E1,1.2108612E1,2.5728985E1,9.819017E0,3.1205322E1,2.68257E1,1.4635719E1,1.557611E1,1.23103695E1,7.7991786E0,0E0,0E0,3.713108E0,1.8998167E1,0E0,0E0,0E0,4.3968716E0,1.6158394E1,0E0,7.2780056E0,0E0,0E0,2.592828E1,3.5764694E0,1.0818907E1,1.8326519E1,8.820374E0,1.5136597E1,0E0,0E0,0E0,0E0,0E0,0E0,0E0,0E0,0E0,0E0,0E0,0E0,0E0,0E0,0E0,0E0,0E0,0E0,0E0,0E0,0E0,0E0,0E0,0E0,0E0,0E0,0E0,0E0,0E0,0E0,0E0,0E0,0E0,0E0,0E0,0E0,0E0,0E0,0E0,0E0,0E0,0E0,0E0,0E0,0E0,0E0,0E0,0E0,0E0,0E0,0E0,0E0,0E0,0E0,0E0,0E0,0E0,0E0,0E0,0E0,0E0,0E0],"parents":[2147483647,0,0,1,1,2,2,3,3,4,4,5,5,6,6,8,8,9,9,10,10,11,11,12,12,13,13,14,14,15,15,16,16,17,17,18,18,19,19,21,21,22,22,23,23,24,24,25,25,26,26,27,27,28,28,29,29,30,30,31,31,33,33,35,35,36,36,38,38,39,39,40,40,41,41,42,42,43,43,44,44,45,45,46,46,47,47,48,48,49,49,50,50,51,51,52,52,53,53,56,56,58,58,59,59,60,60,61,61,63,63,64,64,67,67,68,68,69,69,70,70,71,71,72,72,73,73,74,74,75,75,76,76,77,77,78,78,79,79,82,82,83,83,87,87,88,88,90,90,93,93,94,94,95,95,96,96,97,97,98,98],"right_children":[2,4,6,8,10,12,14,-1,16,18,20,22,24,26,28,30,32,34,36,38,-1,40,42,44,46,48,50,52,54,56,58,60,-1,62,-1,64,66,-1,68,70,72,74,76,78,80,82,84,86,88,90,92,94,96,98,-1,-1,100,-1,102,104,106,108,-1,110,112,-1,-1,114,116,118,120,122,124,126,128,130,132,134,136,138,-1,-1,140,142,-1,-1,-1,144,146,-1,148,-1,-1,150,152,154,156,158,160,-1,-1,-1,-1,-1,-1,-1,-1,-1,-1,-1,-1,-1,-1,-1,-1,-1,-1,-1,-1,-1,-1,-1,-1,-1,-1,-1,-1,-1,-1,-1,-1,-1,-1,-1,-1,-1,-1,-1,-1,-1,-1,-1,-1,-1,-1,-1,-1,-1,-1,-1,-1,-1,-1,-1,-1,-1,-1,-1,-1,-1,-1],"split_conditions":[4E0,1E0,2E0,2.2E1,1.7513868E0,1E1,1E0,-1.0883005E-1,3E0,2.6E1,4.9E1,2E0,4.24E0,-1E0,4E0,2.4E1,4E1,5E0,4E0,1.9857143E0,1.05777405E-1,2.2E1,2.6E1,4.1096773E0,3.6E-1,3E0,-8.75E-1,2.3E1,3.8E-1,2.524674E0,1.0666667E-1,9E0,-1.0152151E-1,1E0,-1.2605743E-1,0E0,2E0,-1.4303903E-1,2.92E0,1E0,-3E0,2.96E0,4.28E0,3.7333333E0,2.5E1,2.3E1,4.5576925E0,4E1,2.7E1,-2.0333333E0,5E0,1.23333335E-1,3E0,2E1,-1.4281678E-1,-1.0133582E-1,1.0666667E-1,1.4498188E-1,2.0333333E-1,-1E0,3E0,2E1,-9.1701426E-2,2E0,3.14E0,-1.1113292E-1,1.2370825E-1,2.74E0,3.56E0,-1E0,3.36E0,6E0,1E0,-1E-1,9E0,3E0,9.2E-1,6E0,1E0,2.4E1,-1.8964848E-1,-9.004261E-2,4.5576925E0,3E0,1.1189015E-1,-1.4686081E-1,1.3943735E-1,2E0,-2.0333333E0,1.4478439E-1,2.3E0,1.4760293E-1,5.9895165E-2,-1.0166667E0,1E0,1.1E1,6E0,1.9857143E0,4E0,3.2087274E-2,1.3034616E-1,-2.0220287E-2,1.1874675E-1,1.2548587E-1,-2.962412E-3,1.234405E-2,1.3353297E-1,4.713792E-2,1.2488659E-1,-9.4994985E-2,1.0258349E-1,1.3712746E-1,3.9042585E-2,-2.5393022E-2,1.0667365E-1,-1.4744814E-1,6.437915E-2,-7.8651026E-2,9.673513E-2,-1.1722109E-2,-1.18073575E-1,-4.4696582E-3,-1.0857111E-1,8.981247E-2,1.7347127E-3,7.2911054E-2,-1.243024E-1,-1.2880327E-1,1.3835354E-1,-9.251394E-2,-3.811507E-3,-1.4453125E-1,1.0659491E-1,-1.4610936E-1,4.6290334E-2,7.484152E-2,-1.20847695E-1,-1.2187105E-1,9.3308136E-2,1.23108916E-1,2.4176052E-2,-1.8452872E-1,9.3308136E-2,-9.245559E-3,1.1505721E-1,1.10013045E-1,-1.5095334E-1,-1.4987074E-1,9.5691495E-2,-1.2197844E-1,-3.041348E-3,-1.7426114E-1,-6.014027E-2,3.222384E-3,-1.527656E-1,1.1286129E-1,-7.196075E-2,2.5015378E-2,-1.3056742E-1,1.16145946E-1,5.2600205E-2],"split_indices":[1,2,2,3,8,12,12,0,1,3,3,12,0,12,2,3,3,12,4,0,0,3,3,0,11,7,11,3,11,4,11,12,0,16,0,12,2,0,0,12,12,0,0,0,3,3,0,3,3,11,8,11,8,3,0,0,11,0,11,12,7,3,0,1,0,0,0,0,0,12,0,1,12,11,1,4,11,1,2,3,0,0,0,8,0,0,0,4,11,0,0,0,0,11,15,12,8,0,12,0,0,0,0,0,0,0,0,0,0,0,0,0,0,0,0,0,0,0,0,0,0,0,0,0,0,0,0,0,0,0,0,0,0,0,0,0,0,0,0,0,0,0,0,0,0,0,0,0,0,0,0,0,0,0,0,0,0,0,0,0,0],"split_type":[0,0,0,0,0,0,0,0,0,0,0,0,0,0,0,0,0,0,0,0,0,0,0,0,0,0,0,0,0,0,0,0,0,0,0,0,0,0,0,0,0,0,0,0,0,0,0,0,0,0,0,0,0,0,0,0,0,0,0,0,0,0,0,0,0,0,0,0,0,0,0,0,0,0,0,0,0,0,0,0,0,0,0,0,0,0,0,0,0,0,0,0,0,0,0,0,0,0,0,0,0,0,0,0,0,0,0,0,0,0,0,0,0,0,0,0,0,0,0,0,0,0,0,0,0,0,0,0,0,0,0,0,0,0,0,0,0,0,0,0,0,0,0,0,0,0,0,0,0,0,0,0,0,0,0,0,0,0,0,0,0],"sum_hessian":[2.0336229E3,3.032192E2,1.7304037E3,2.4544997E2,5.776925E1,1.0523192E3,6.780844E2,1.7023015E0,2.4374767E2,3.2783962E1,2.4985289E1,9.287668E2,1.2355249E2,1.5996298E2,5.1812146E2,1.7904773E2,6.4699936E1,9.268539E0,2.351542E1,2.1751377E1,3.2339125E0,3.1842975E2,6.1033704E2,6.2759586E1,6.0792904E1,4.7322647E1,1.12640335E2,3.0375275E2,2.1436868E2,6.5040574E0,1.7254367E2,6.3242462E1,1.4574728E0,6.1509795E0,3.1175601E0,1.8625654E1,4.8897676E0,7.9987435E0,1.3752632E1,1.2209184E2,1.9633792E2,4.3537146E2,1.7496556E2,5.237633E1,1.0383254E1,4.93275E1,1.14654045E1,1.0564593E1,3.6758053E1,1.1631848E1,1.01008484E2,1.7997505E2,1.237777E2,2.1068373E2,3.6849427E0,1.2361028E0,5.2679543E0,1.11273674E2,6.127E1,2.4656345E1,3.8586117E1,4.9468207E0,1.2041588E0,2.720921E0,1.5904734E1,1.9310638E0,2.9587038E0,8.807065E0,4.9455676E0,2.5054953E1,9.703689E1,4.392742E1,1.5241049E2,1.3616852E1,4.217546E2,1.367226E2,3.8242966E1,1.5303593E1,3.707274E1,5.221562E0,5.161692E0,1.1952169E0,4.8132282E1,8.182163E0,3.2832408E0,6.0682755E0,4.496318E0,2.903513E1,7.722925E0,8.745962E0,2.8858857E0,9.897174E1,2.0367444E0,1.6209476E2,1.7880306E1,7.859711E1,4.518059E1,2.445274E1,1.8623099E2,2.2490616E0,3.0188928E0,3.2805204E0,5.798948E1,1.0055204E1,1.460114E1,2.7936432E0,3.5792477E1,1.9754099E0,2.9714108E0,1.2193027E0,1.5016184E0,1.3618733E1,2.2859998E0,3.4885714E0,5.318494E0,2.9350786E0,2.010489E0,5.246023E0,1.980893E1,1.5050584E1,8.1986305E1,2.1719412E1,2.220801E1,4.7531784E1,1.04878716E2,1.1401595E1,2.2152567E0,4.1810898E2,3.6456137E0,6.1480392E1,7.52422E1,3.646766E1,1.7753068E0,8.302934E0,7.0006595E0,3.4433144E1,2.639596E0,1.6927841E0,3.5287778E0,4.337582E1,4.756462E0,4.6533856E0,3.5287778E0,3.021546E0,2.6013584E1,3.2667131E0,4.456212E0,1.4282253E0,1.4576604E0,2.00542E1,1.4204056E2,1.2611593E1,5.2687135E0,7.487235E1,3.724758E0,3.969537E1,5.485223E0,2.108898E1,3.363762E0,1.3002734E2,5.6203648E1],"tree_param":{"num_deleted":"0","num_feature":"21","num_nodes":"161","size_leaf_vector":"1"}},{"base_weights":[-6.1444E-4,6.924473E-1,-2.2752337E-1,1.1148804E0,4.1120383E-1,-6.8997943E-1,4.4708097E-1,2.324744E-1,1.2129679E0,-1.1607037E0,4.779092E-1,-2.1087033E-1,-9.2810255E-1,8.0763537E-1,7.351548E-2,-6.001652E-1,9.5398086E-1,3.6395973E-1,1.2453127E0,-1.537579E-1,9.7534664E-2,1.2070149E0,3.5926133E-1,-6.234602E-1,6.684502E-2,-1.0340545E0,2.6784572E-1,-1.506431E-1,8.6219704E-1,5.170382E-1,-2.5684348E-1,-1.3740194E-1,5.0660616E-1,1.7022375E-2,1.1370304E0,-1.091368E-1,9.40655E-1,1.3652734E0,1.0422856E0,7.0546407E-1,1.3458674E0,-1.10992275E-1,6.48899E-1,5.3412E-1,-9.294408E-1,-7.039722E-1,2.6308614E-1,-1.2157446E0,-6.936472E-1,5.66895E-1,-8.206051E-1,6.367919E-1,1.2212774E0,6.589924E-1,-9.348514E-1,-1.6851209E-1,-1.2742287E-1,9.002169E-2,9.845798E-2,6.4539003E-1,1.3623737E-1,1.233056E-1,2.9282141E-2,9.0712E-1,1.3935958E-1,1.0977033E0,4.1528025E-1,1.1507262E-1,-1.6274905E-1,5.6606036E-1,1.4549556E-1,5.596227E-1,-4.229929E-1,-1.314786E-1,7.223019E-1,-7.190135E-1,8.9147323E-1,-1.5312885E-1,-6.577201E-1,-2.3888056E-1,-1.2478948E0,9.006798E-1,2.4887048E-2,-1.2304665E0,4.6863982E-1,-3.440739E-1,-1.2286376E0,5.246777E-2,9.1744757E-1,-1.7067298E-1,3.2055963E-2,1.0204667E0,2.5906575E-1,-5.803303E-2,1.2889271E0,2.6777565E-1,9.297596E-1,-1.8122537E-1,5.136688E-1,2.433177E-2,-1.1854075E0,-8.4295765E-2,9.002169E-2,2.149572E-2,9.6509956E-2,8.26615E-3,1.1486305E-1,5.547083E-2,1.17048435E-1,-3.2789264E-2,1.00806E-1,-1.02460936E-1,9.6509956E-2,-1.23989955E-1,1.4145018E-1,9.680631E-2,-2.7700782E-2,-6.721885E-2,1.1609673E-1,1.3600926E-1,5.8790535E-2,-1.5386064E-1,8.514257E-2,1.0427495E-1,-7.963257E-3,4.9430903E-2,-8.795783E-2,-1.3614485E-1,1.8573727E-2,-1.5648878E-1,1.7802807E-2,5.0240796E-2,1.3976553E-1,1.7876232E-2,-1.5142994E-1,-9.64675E-2,-1.3065429E-1,-9.185489E-2,1.6449776E-1,-9.478333E-2,-4.084074E-3,-1.3674138E-1,7.967057E-2,7.8996934E-2,-1.0212014E-1,1.0881736E-1,-1.2073288E-1,-1.2337915E-1,8.075951E-2,4.5990165E-2,1.2861754E-1,-1.7457703E-1,4.4598494E-2,-1.1459853E-1,6.0280897E-2,1.3238233E-1,-1.1055672E-2,-1.4478634E-1,4.9511116E-2,5.570181E-2,1.2384347E-1,1.0966679E-1,-1.699022E-3,-5.016138E-2,3.5071697E-2,-1.4376174E-1,1.1299948E-1],"categories":[],"categories_nodes":[],"categories_segments":[],"categories_sizes":[],"default_left":[0,0,0,0,0,0,0,0,0,0,0,0,0,0,0,0,0,0,0,0,0,0,0,0,0,0,0,0,0,0,0,0,0,0,0,0,0,0,0,0,0,0,0,0,0,0,0,0,0,0,0,0,0,0,0,0,0,0,0,0,0,0,0,0,0,0,0,0,0,0,0,0,0,0,0,0,0,0,0,0,0,0,0,0,0,0,0,0,0,0,0,0,0,0,0,0,0,0,0,0,0,0,0,0,0,0,0,0,0,0,0,0,0,0,0,0,0,0,0,0,0,0,0,0,0,0,0,0,0,0,0,0,0,0,0,0,0,0,0,0,0,0,0,0,0,0,0,0,0,0,0,0,0,0,0,0,0,0,0,0,0,0,0,0,0,0,0],"id":4,"left_children":[1,3,5,7,9,11,13,15,17,19,21,23,25,27,29,31,33,35,37,-1,-1,39,41,43,45,47,49,-1,51,53,55,-1,57,-1,59,-1,61,63,65,67,69,71,73,75,77,79,81,83,85,87,89,91,93,95,97,-1,99,-1,101,103,-1,-1,-1,105,-1,107,109,-1,111,113,-1,115,117,-1,119,121,123,-1,125,127,129,131,133,135,137,139,141,143,145,-1,147,149,151,153,155,157,159,-1,161,163,165,-1,-1,-1,-1,-1,-1,-1,-1,-1,-1,-1,-1,-1,-1,-1,-1,-1,-1,-1,-1,-1,-1,-1,-1,-1,-1,-1,-1,-1,-1,-1,-1,-1,-1,-1,-1,-1,-1,-1,-1,-1,-1,-1,-1,-1,-1,-1,-1,-1,-1,-1,-1,-1,-1,-1,-1,-1,-1,-1,-1,-1,-1,-1,-1,-1,-1],"loss_changes":[3.1414767E2,5.807831E1,4.697995E2,1.6711716E1,3.1735058E1,1.0171048E2,8.246127E1,1.3115484E1,4.3925476E0,1.14795685E1,2.4304749E1,3.4170048E1,7.5846375E1,4.064923E1,4.4383045E1,9.523529E0,1.4666405E0,7.6476E0,2.7069702E0,0E0,0E0,1.8083E0,3.376471E1,4.297323E1,2.7250565E1,3.30531E1,1.6521946E1,0E0,2.3918259E1,2.725541E1,3.1902958E1,0E0,7.100744E-1,0E0,1.4053154E-1,0E0,8.109369E-1,7.70874E-2,1.879425E0,4.318893E0,1.7209358E0,2.0143284E1,2.3036247E1,1.2152911E1,1.456411E1,8.9558525E0,2.1747978E1,9.404541E0,3.568142E1,7.036969E0,8.396584E0,2.720462E1,1.0164154E1,1.2285362E1,1.6087164E1,0E0,2.5781252E1,0E0,3.448585E0,4.5215333E-1,0E0,0E0,0E0,1.673696E0,0E0,1.7669983E0,3.443499E0,0E0,5.3622093E0,9.886556E0,0E0,1.0738164E1,2.6634789E1,0E0,1.1916832E1,9.36446E0,3.0871563E0,0E0,1.764934E1,1.0241826E1,7.793045E0,7.008951E0,2.5230652E1,5.8812256E0,7.7261186E0,2.1591782E1,2.2423622E1,1.4254684E1,9.767954E0,0E0,7.4836698E0,1.3363281E1,3.7072754E1,5.5883865E0,5.555847E0,2.0141495E1,7.309391E0,0E0,1.6514152E0,2.4424076E1,1.3386181E1,0E0,0E0,0E0,0E0,0E0,0E0,0E0,0E0,0E0,0E0,0E0,0E0,0E0,0E0,0E0,0E0,0E0,0E0,0E0,0E0,0E0,0E0,0E0,0E0,0E0,0E0,0E0,0E0,0E0,0E0,0E0,0E0,0E0,0E0,0E0,0E0,0E0,0E0,0E0,0E0,0E0,0E0,0E0,0E0,0E0,0E0,0E0,0E0,0E0,0E0,0E0,0E0,0E0,0E0,0E0,0E0,0E0,0E0,0E0,0E0,0E0,0E0,0E0,0E0,0E0,0E0],"parents":[2147483647,0,0,1,1,2,2,3,3,4,4,5,5,6,6,7,7,8,8,9,9,10,10,11,11,12,12,13,13,14,14,15,15,16,16,17,17,18,18,21,21,22,22,23,23,24,24,25,25,26,26,28,28,29,29,30,30,32,32,34,34,36,36,37,37,38,38,39,39,40,40,41,41,42,42,43,43,44,44,45,45,46,46,47,47,48,48,49,49,50,50,51,51,52,52,53,53,54,54,56,56,58,58,59,59,63,63,65,65,66,66,68,68,69,69,71,71,72,72,74,74,75,75,76,76,78,78,79,79,80,80,81,81,82,82,83,83,84,84,85,85,86,86,87,87,88,88,90,90,91,91,92,92,93,93,94,94,95,95,96,96,98,98,99,99,100,100],"right_children":[2,4,6,8,10,12,14,16,18,20,22,24,26,28,30,32,34,36,38,-1,-1,40,42,44,46,48,50,-1,52,54,56,-1,58,-1,60,-1,62,64,66,68,70,72,74,76,78,80,82,84,86,88,90,92,94,96,98,-1,100,-1,102,104,-1,-1,-1,106,-1,108,110,-1,112,114,-1,116,118,-1,120,122,124,-1,126,128,130,132,134,136,138,140,142,144,146,-1,148,150,152,154,156,158,160,-1,162,164,166,-1,-1,-1,-1,-1,-1,-1,-1,-1,-1,-1,-1,-1,-1,-1,-1,-1,-1,-1,-1,-1,-1,-1,-1,-1,-1,-1,-1,-1,-1,-1,-1,-1,-1,-1,-1,-1,-1,-1,-1,-1,-1,-1,-1,-1,-1,-1,-1,-1,-1,-1,-1,-1,-1,-1,-1,-1,-1,-1,-1,-1,-1,-1,-1,-1,-1],"split_conditions":[5E0,3E0,2E0,2.96E0,2E1,2E0,2E0,3.4E1,2.4E1,1E0,1.38E0,2.2E1,1E1,1.8E1,2.16E0,4E0,2E0,2.524674E0,1.6666668E-2,-1.537579E-1,9.7534664E-2,4E0,3.8166666E0,1E0,-3E0,2.5E1,2E-1,-1.506431E-1,4E0,1E0,-1.2E0,-1.3740194E-1,1E0,1.7022375E-2,-5.8E-1,-1.091368E-1,1.7513868E0,2.7E1,1E0,1.7513868E0,2E0,3E0,2.3E1,-1E0,1.9E1,1E0,1E0,8E0,4.0666666E0,-8.881784E-16,1E0,1E0,-2E0,2E0,1.6E0,-1.6851209E-1,3.22E0,9.002169E-2,1E0,4.2E1,1.3623737E-1,1.233056E-1,2.9282141E-2,2E0,1.3935958E-1,2.0333333E-1,4E0,1.1507262E-1,4E1,3.5058053E0,1.4549556E-1,2.5E1,1E0,-1.314786E-1,-3E-1,5E0,1.6666668E-2,-1.5312885E-1,3.36E0,-7E0,3.5E1,0E0,4.3333335E0,3E0,7E0,3.68E0,9.2E-1,2.6E1,5E0,-1.7067298E-1,4.233333E0,-1E0,2E0,3.5058053E0,7E0,2E1,5E0,-1.8122537E-1,1.68E0,2.2E1,7E0,-8.4295765E-2,9.002169E-2,2.149572E-2,9.6509956E-2,8.26615E-3,1.1486305E-1,5.547083E-2,1.17048435E-1,-3.2789264E-2,1.00806E-1,-1.02460936E-1,9.6509956E-2,-1.23989955E-1,1.4145018E-1,9.680631E-2,-2.7700782E-2,-6.721885E-2,1.1609673E-1,1.3600926E-1,5.8790535E-2,-1.5386064E-1,8.514257E-2,1.0427495E-1,-7.963257E-3,4.9430903E-2,-8.795783E-2,-1.3614485E-1,1.8573727E-2,-1.5648878E-1,1.7802807E-2,5.0240796E-2,1.3976553E-1,1.7876232E-2,-1.5142994E-1,-9.64675E-2,-1.3065429E-1,-9.185489E-2,1.6449776E-1,-9.478333E-2,-4.084074E-3,-1.3674138E-1,7.967057E-2,7.8996934E-2,-1.0212014E-1,1.0881736E-1,-1.2073288E-1,-1.2337915E-1,8.075951E-2,4.5990165E-2,1.2861754E-1,-1.7457703E-1,4.4598494E-2,-1.1459853E-1,6.0280897E-2,1.3238233E-1,-1.1055672E-2,-1.4478634E-1,4.9511116E-2,5.570181E-2,1.2384347E-1,1.0966679E-1,-1.699022E-3,-5.016138E-2,3.5071697E-2,-1.4376174E-1,1.1299948E-1],"split_indices":[1,1,2,0,3,12,12,3,3,9,0,3,12,3,0,7,7,4,11,0,0,1,0,12,12,3,11,0,2,17,11,0,8,0,11,0,8,3,20,8,4,12,3,12,3,16,12,8,0,11,16,12,12,8,0,0,0,0,17,3,0,0,0,8,0,11,7,0,3,7,0,3,20,0,11,7,11,0,0,12,3,12,0,12,12,0,11,3,7,0,0,12,4,7,1,3,2,0,0,3,1,0,0,0,0,0,0,0,0,0,0,0,0,0,0,0,0,0,0,0,0,0,0,0,0,0,0,0,0,0,0,0,0,0,0,0,0,0,0,0,0,0,0,0,0,0,0,0,0,0,0,0,0,0,0,0,0,0,0,0,0,0,0,0,0,0,0],"split_type":[0,0,0,0,0,0,0,0,0,0,0,0,0,0,0,0,0,0,0,0,0,0,0,0,0,0,0,0,0,0,0,0,0,0,0,0,0,0,0,0,0,0,0,0,0,0,0,0,0,0,0,0,0,0,0,0,0,0,0,0,0,0,0,0,0,0,0,0,0,0,0,0,0,0,0,0,0,0,0,0,0,0,0,0,0,0,0,0,0,0,0,0,0,0,0,0,0,0,0,0,0,0,0,0,0,0,0,0,0,0,0,0,0,0,0,0,0,0,0,0,0,0,0,0,0,0,0,0,0,0,0,0,0,0,0,0,0,0,0,0,0,0,0,0,0,0,0,0,0,0,0,0,0,0,0,0,0,0,0,0,0,0,0,0,0,0,0],"sum_hessian":[1.9956066E3,4.9170633E2,1.5039003E3,1.9533911E2,2.9636722E2,8.9223254E2,6.116677E2,1.987863E1,1.7546048E2,1.1397012E1,2.849702E2,2.968497E2,5.953828E2,3.10663E2,3.0100473E2,9.306655E0,1.0571975E1,6.888899E0,1.6857158E2,9.925906E0,1.4711062E0,3.8599354E1,2.4637085E2,1.18924164E2,1.7792554E2,5.470534E2,4.8329422E1,6.5432134E0,3.0411978E2,1.2825336E2,1.7275137E2,5.3349752E0,3.97168E0,2.367038E0,8.204936E0,1.7018127E0,5.187086E0,1.0236415E2,6.620743E1,9.687538E0,2.8911818E1,9.4141E1,1.5222986E2,2.4707102E1,9.4217064E1,3.558066E1,1.4234488E2,3.5500195E2,1.9205142E2,3.828883E1,1.0040591E1,1.885407E2,1.155791E2,1.17328064E2,1.0925288E1,1.3354247E1,1.5939713E2,1.4081107E0,2.563569E0,3.7931967E0,4.41174E0,2.9515464E0,2.2355394E0,7.8825064E0,9.448164E1,6.0141148E1,6.066281E0,6.188419E0,3.4991193E0,4.3076906E0,2.4604128E1,2.9639696E1,6.4501305E1,4.8759465E0,1.4735391E2,5.257728E0,1.9449375E1,2.7864063E1,6.6353004E1,1.9956041E1,1.5624621E1,3.7958683E1,1.043862E2,3.521932E2,2.808749E0,1.17147835E2,7.490358E1,1.5983343E1,2.2305487E1,4.432492E0,5.6081E0,9.268968E1,9.5851006E1,5.811987E0,1.0976711E2,4.88035E1,6.852457E1,6.6475844E0,4.2777033E0,1.4025613E2,1.9140984E1,1.1554585E0,1.4081107E0,2.3294084E0,1.4637883E0,2.0900044E0,5.792502E0,8.127336E0,5.2013813E1,2.889964E0,3.1763167E0,2.035331E0,1.4637883E0,1.2294166E0,3.078274E0,1.9810953E1,9.828742E0,5.6230503E1,8.270802E0,2.4059145E1,1.2329476E2,3.4680603E0,1.7896681E0,1.6764128E1,2.6852474E0,1.0516517E1,5.5836487E1,4.8713355E0,1.5084705E1,1.2703161E1,2.9214602E0,2.2188189E1,1.57704935E1,9.57025E1,8.683695E0,8.141842E1,2.707748E2,1.3894244E0,1.4193246E0,3.8455116E1,7.869272E1,7.0404335E1,4.4992495E0,9.631628E0,6.3517156E0,2.1098116E1,1.2073715E0,1.9060811E0,3.7020187E0,3.0684828E1,6.2004856E1,7.4632154E0,8.8387794E1,1.9188432E0,3.8931437E0,1.071494E2,2.617716E0,5.0820217E0,4.3721478E1,3.2311394E1,3.6213173E1,1.5300862E0,2.7476172E0,5.3503056E1,8.675308E1,1.7602682E1,1.5383013E0],"tree_param":{"num_deleted":"0","num_feature":"21","num_nodes":"167","size_leaf_vector":"1"}},{"base_weights":[-6.168284E-4,8.929516E-1,-1.5411666E-1,1.0447853E0,2.5511345E-1,-4.2724752E-1,6.46512E-1,-4.4198632E-1,1.0729792E0,4.9825987E-1,-4.1369173E-1,4.2400712E-1,-5.590635E-1,9.8007226E-1,3.614024E-1,-1.153908E-1,4.798085E-2,8.96107E-1,1.2335128E0,6.2298816E-1,-4.808472E-1,-1.4850117E-1,4.9013907E-1,-1.5168023E-1,1.0532206E0,-6.790212E-1,3.1105235E-1,-1.21733345E-1,1.0161865E0,-6.125469E-1,4.9040273E-1,9.5245755E-1,2.6014669E-2,3.2590166E-2,1.248241E0,2.2770962E-1,8.526608E-1,-1.2784705E-1,7.676641E-2,-1.1036257E-1,1.1136588E0,2.8779533E-2,-9.583576E-1,1.1456956E0,-6.2938946E-1,-2.8914145E-1,-8.4156007E-1,-3.7742253E-2,7.273445E-1,1.0424972E0,-1.2063464E-1,7.0546585E-1,-8.7059927E-1,7.731819E-1,1.8401934E-1,7.0733833E-1,1.1113144E0,-8.3254737E-1,1.1428591E-1,1.2861773E-1,7.7358264E-1,-1.07778266E-1,5.653262E-1,-1.0193203E-2,9.988266E-1,4.5592528E-2,1.265974E-1,-2.8953767E-1,1.057393E0,-1.5982161E-1,2.0372261E-1,6.92095E-1,1.346719E-1,8.326411E-2,-1.42596E-1,1.2937446E-1,-5.0644374E-1,-9.99726E-1,-4.2973876E-1,2.7011862E-1,-4.648126E-1,9.278786E-1,-1.2525193E-1,-2.89593E-1,1.0699825E0,2.0799687E-2,1.1158019E-1,-1.2475094E0,4.2142504E-1,8.2531184E-1,-1.1740067E-1,-5.385437E-1,3.6226127E-1,8.314507E-2,-6.514626E-2,1.18279696E-1,-2.8815592E-2,-1.7332888E-1,8.804865E-2,1.12706386E-1,-2.821878E-2,8.859036E-2,-1.01431385E-1,2.1835957E-2,1.08970225E-1,-1.2291264E-1,6.8156555E-4,4.6443246E-2,1.4741091E-1,7.8623906E-2,-1.0104644E-1,8.275886E-2,-2.6242295E-2,-1.5704745E-1,2.8626299E-2,6.554046E-2,-5.9565246E-2,-6.121541E-2,-1.1537471E-1,-2.261464E-2,-1.1878864E-1,4.3565683E-2,-8.004414E-2,-1.3436252E-2,-1.55057E-1,-8.639273E-2,9.901471E-2,-6.3035436E-2,1.00672185E-1,-1.2078722E-1,9.960007E-2,1.0952158E-1,-3.1582426E-2,-1.5147777E-1,8.1278756E-2,1.1205604E-1,-1.0474807E-1,-1.9129789E-2,9.122814E-2,-1.112589E-1,1.1523763E-1,4.6440892E-2,-8.6850636E-2],"categories":[],"categories_nodes":[],"categories_segments":[],"categories_sizes":[],"default_left":[0,0,0,0,0,0,0,0,0,0,0,0,0,0,0,0,0,0,0,0,0,0,0,0,0,0,0,0,0,0,0,0,0,0,0,0,0,0,0,0,0,0,0,0,0,0,0,0,0,0,0,0,0,0,0,0,0,0,0,0,0,0,0,0,0,0,0,0,0,0,0,0,0,0,0,0,0,0,0,0,0,0,0,0,0,0,0,0,0,0,0,0,0,0,0,0,0,0,0,0,0,0,0,0,0,0,0,0,0,0,0,0,0,0,0,0,0,0,0,0,0,0,0,0,0,0,0,0,0,0,0,0,0,0,0,0,0,0,0,0,0,0,0],"id":5,"left_children":[1,3,5,7,9,11,13,15,17,19,21,23,25,27,29,-1,-1,31,33,35,37,-1,39,41,43,45,47,-1,49,51,53,55,57,-1,59,61,63,-1,-1,-1,65,67,69,71,73,75,77,79,81,83,-1,85,87,89,91,93,95,97,-1,-1,99,-1,101,-1,103,-1,-1,105,107,-1,109,111,-1,-1,-1,113,115,117,119,121,123,125,127,129,131,-1,-1,133,135,137,-1,139,141,-1,-1,-1,-1,-1,-1,-1,-1,-1,-1,-1,-1,-1,-1,-1,-1,-1,-1,-1,-1,-1,-1,-1,-1,-1,-1,-1,-1,-1,-1,-1,-1,-1,-1,-1,-1,-1,-1,-1,-1,-1,-1,-1,-1,-1,-1,-1,-1,-1,-1],"loss_changes":[2.6833972E2,2.750888E1,3.653688E2,1.0171249E1,9.388779E0,1.3999057E2,4.0071503E1,3.8437028E0,5.349182E0,5.4123154E0,1.5835077E1,6.0858498E1,1.1282425E2,1.6736465E1,2.9294237E1,0E0,0E0,5.4573975E0,1.1506348E0,3.2166948E0,6.254447E0,0E0,1.0385729E1,1.2893435E1,1.31983795E1,5.9863647E1,1.910773E1,0E0,1.2525909E1,9.945373E0,1.7561005E1,3.3018494E0,8.458584E0,0E0,1.0630951E0,7.296367E0,3.3666477E0,0E0,0E0,0E0,1.3620472E-1,2.427196E1,1.2361096E1,6.0312805E0,6.804161E0,2.5584702E1,4.31398E1,9.651203E0,1.03671875E1,7.302231E0,0E0,7.9763293E-1,1.19165535E1,1.1723354E1,1.29951515E1,7.9677067E0,6.538124E0,9.248664E0,0E0,0E0,4.411218E0,0E0,7.335063E0,0E0,1.2078362E0,0E0,0E0,1.5791439E1,3.6427498E0,0E0,5.486987E0,3.5161247E0,0E0,0E0,0E0,2.6237446E1,1.9555195E1,2.8098053E1,2.865197E1,7.921896E0,1.0812509E1,6.284374E0,7.665975E0,6.6900263E0,6.8966064E0,0E0,0E0,1.1341612E1,7.366416E0,9.349495E0,0E0,2.0761105E1,1.0500998E1,0E0,0E0,0E0,0E0,0E0,0E0,0E0,0E0,0E0,0E0,0E0,0E0,0E0,0E0,0E0,0E0,0E0,0E0,0E0,0E0,0E0,0E0,0E0,0E0,0E0,0E0,0E0,0E0,0E0,0E0,0E0,0E0,0E0,0E0,0E0,0E0,0E0,0E0,0E0,0E0,0E0,0E0,0E0,0E0,0E0,0E0,0E0,0E0,0E0,0E0],"parents":[2147483647,0,0,1,1,2,2,3,3,4,4,5,5,6,6,7,7,8,8,9,9,10,10,11,11,12,12,13,13,14,14,17,17,18,18,19,19,20,20,22,22,23,23,24,24,25,25,26,26,28,28,29,29,30,30,31,31,32,32,34,34,35,35,36,36,40,40,41,41,42,42,43,43,44,44,45,45,46,46,47,47,48,48,49,49,51,51,52,52,53,53,54,54,55,55,56,56,57,57,60,60,62,62,64,64,67,67,68,68,70,70,71,71,75,75,76,76,77,77,78,78,79,79,80,80,81,81,82,82,83,83,84,84,87,87,88,88,89,89,91,91,92,92],"right_children":[2,4,6,8,10,12,14,16,18,20,22,24,26,28,30,-1,-1,32,34,36,38,-1,40,42,44,46,48,-1,50,52,54,56,58,-1,60,62,64,-1,-1,-1,66,68,70,72,74,76,78,80,82,84,-1,86,88,90,92,94,96,98,-1,-1,100,-1,102,-1,104,-1,-1,106,108,-1,110,112,-1,-1,-1,114,116,118,120,122,124,126,128,130,132,-1,-1,134,136,138,-1,140,142,-1,-1,-1,-1,-1,-1,-1,-1,-1,-1,-1,-1,-1,-1,-1,-1,-1,-1,-1,-1,-1,-1,-1,-1,-1,-1,-1,-1,-1,-1,-1,-1,-1,-1,-1,-1,-1,-1,-1,-1,-1,-1,-1,-1,-1,-1,-1,-1,-1,-1],"split_conditions":[4E0,1E0,3E0,2.3E1,1E1,1E0,2E0,4.2105265E0,1.1E1,4.4E-1,4E0,-1E0,1E1,1.8E1,2E1,-1.153908E-1,4.798085E-2,1.2E0,2.4E1,-5.8E-1,1E0,-1.4850117E-1,3.2E1,4.266667E0,2.4E-1,3.44E0,4.24E0,-1.21733345E-1,1E1,-2.6666667E0,1.68E0,2.524674E0,1E0,3.2590166E-2,1.0266666E0,2.4E1,7.2E-1,-1.2784705E-1,7.676641E-2,-1.1036257E-1,1.5E1,4.1E0,4.625E0,0E0,2.92E0,2E0,2.6E1,2.524674E0,3.6E-1,-5E0,-1.2063464E-1,8.5E-1,2.78E0,3.8E-1,-1.2E0,4.522222E0,4E1,4.522222E0,1.1428591E-1,1.2861773E-1,1E0,-1.07778266E-1,1E0,-1.0193203E-2,2E0,4.5592528E-2,1.265974E-1,-6E0,-2E0,-1.5982161E-1,1.8E-1,1E0,1.346719E-1,8.326411E-2,-1.42596E-1,2E0,1E0,2E0,4.28E0,1E0,6E0,2.3E1,4.5576925E0,3E0,5E0,2.0799687E-2,1.1158019E-1,6E0,-7E-1,1E0,-1.1740067E-1,5E0,8E0,8.314507E-2,-6.514626E-2,1.18279696E-1,-2.8815592E-2,-1.7332888E-1,8.804865E-2,1.12706386E-1,-2.821878E-2,8.859036E-2,-1.01431385E-1,2.1835957E-2,1.08970225E-1,-1.2291264E-1,6.8156555E-4,4.6443246E-2,1.4741091E-1,7.8623906E-2,-1.0104644E-1,8.275886E-2,-2.6242295E-2,-1.5704745E-1,2.8626299E-2,6.554046E-2,-5.9565246E-2,-6.121541E-2,-1.1537471E-1,-2.261464E-2,-1.1878864E-1,4.3565683E-2,-8.004414E-2,-1.3436252E-2,-1.55057E-1,-8.639273E-2,9.901471E-2,-6.3035436E-2,1.00672185E-1,-1.2078722E-1,9.960007E-2,1.0952158E-1,-3.1582426E-2,-1.5147777E-1,8.1278756E-2,1.1205604E-1,-1.0474807E-1,-1.9129789E-2,9.122814E-2,-1.112589E-1,1.1523763E-1,4.6440892E-2,-8.6850636E-2],"split_indices":[1,2,2,3,12,12,12,0,12,11,7,12,12,3,3,0,0,11,3,11,17,0,3,0,11,0,0,0,1,11,0,4,6,0,11,3,0,0,0,0,12,0,0,12,0,12,3,4,11,12,0,0,0,11,11,0,3,0,0,0,15,0,6,0,4,0,0,12,12,0,11,15,0,0,0,4,19,12,0,15,1,3,0,8,8,0,0,4,11,8,0,2,12,0,0,0,0,0,0,0,0,0,0,0,0,0,0,0,0,0,0,0,0,0,0,0,0,0,0,0,0,0,0,0,0,0,0,0,0,0,0,0,0,0,0,0,0,0,0,0,0,0,0],"split_type":[0,0,0,0,0,0,0,0,0,0,0,0,0,0,0,0,0,0,0,0,0,0,0,0,0,0,0,0,0,0,0,0,0,0,0,0,0,0,0,0,0,0,0,0,0,0,0,0,0,0,0,0,0,0,0,0,0,0,0,0,0,0,0,0,0,0,0,0,0,0,0,0,0,0,0,0,0,0,0,0,0,0,0,0,0,0,0,0,0,0,0,0,0,0,0,0,0,0,0,0,0,0,0,0,0,0,0,0,0,0,0,0,0,0,0,0,0,0,0,0,0,0,0,0,0,0,0,0,0,0,0,0,0,0,0,0,0,0,0,0,0,0,0],"sum_hessian":[1.9543585E3,2.8580203E2,1.6685564E3,2.3033429E2,5.5467766E1,1.2444756E3,4.240809E2,4.0134397E0,2.2632085E2,4.0865845E1,1.4601919E1,1.6656949E2,1.077906E3,1.9431133E2,2.2976958E2,2.1224337E0,1.891006E0,1.10812386E2,1.1550846E2,3.6570816E1,4.2950306E0,6.387605E0,8.214314E0,8.738089E1,7.91886E1,9.474996E2,1.3040645E2,2.6129951E0,1.9169833E2,2.6435305E1,2.0333427E2,1.0398336E2,6.829028E0,2.2137854E0,1.1329467E2,1.41718235E1,2.239899E1,2.606102E0,1.6889285E0,2.093408E0,6.1209064E0,7.219472E1,1.5186174E1,7.5365654E1,3.8229413E0,2.7960178E2,6.678978E2,7.145037E1,5.895608E1,1.8998026E2,1.7180774E0,4.044426E0,2.2390879E1,1.0494802E2,9.838625E1,4.30339E1,6.094946E1,4.0048766E0,2.8241515E0,1.0332675E2,9.967922E0,2.461478E0,1.1710345E1,3.0144684E0,1.9384523E1,1.9017965E0,4.2191095E0,5.5681805E1,1.6512909E1,9.55161E0,5.634564E0,2.4507767E1,5.085789E1,1.3323166E0,2.4906244E0,9.569723E1,1.8390456E2,4.8153122E2,1.863666E2,4.1733547E1,2.9716824E1,4.765835E1,1.129773E1,3.6478844E0,1.8633237E2,2.5092466E0,1.5351793E0,1.7360823E1,5.0300565E0,1.0277276E2,2.175268E0,1.9067673E1,7.931858E1,3.97878E1,3.2461E0,5.8134853E1,2.8146043E0,2.616994E0,1.3878826E0,7.4170885E0,2.5508337E0,1.0099827E1,1.6105187E0,2.3765805E0,1.7007942E1,1.2596639E1,4.3085167E1,7.6879497E0,8.824959E0,4.0459447E0,1.5886195E0,2.1577784E1,2.929983E0,7.32479E0,8.837244E1,1.2661045E1,1.7124352E2,1.3835509E2,3.4317615E2,1.4793777E2,3.842881E1,3.665823E1,5.075319E0,2.3644403E1,6.07242E0,1.1682131E0,4.649014E1,8.118348E0,3.1793826E0,2.1632006E0,1.4846839E0,1.8320618E2,3.1261928E0,1.5601698E1,1.7591245E0,3.5686703E0,1.4613861E0,8.004658E0,9.47681E1,1.4490394E1,4.577279E0,7.381497E1,5.5036116E0],"tree_param":{"num_deleted":"0","num_feature":"21","num_nodes":"143","size_leaf_vector":"1"}},{"base_weights":[-8.0626685E-4,8.3368015E-1,-1.4220253E-1,9.787983E-1,2.3244159E-1,-3.9304572E-1,5.954149E-1,-4.1751894E-1,1.0058376E0,5.7127595E-1,-2.107784E-1,3.92059E-1,-5.139355E-1,9.108633E-1,3.302613E-1,-1.0950835E-1,4.5106325E-2,8.3251786E-1,1.165878E0,-7.7132225E-2,8.2084906E-1,-4.127866E-1,9.199954E-2,1.71243E-2,1.2493118E0,-6.2461287E-1,2.8228205E-1,-1.1529209E-1,9.451383E-1,-5.6546617E-1,4.4721863E-1,8.8527924E-1,2.8980833E-2,1.1784602E0,2.2553908E-2,5.3267694E-1,-1.1233234E-1,4.746382E-1,1.14398E0,-1.2702861E-1,1.0488542E-1,-1.3251485E-1,1.1035011E-1,1.2748353E-1,3.9673E-2,-3.5612255E-1,-8.4298676E-1,-3.898078E-1,4.6643227E-1,9.704252E-1,-1.1382996E-1,6.6441965E-1,-8.1276387E-1,7.105481E-1,1.6622911E-1,1.0277013E0,6.195554E-1,-7.6465815E-1,1.0886969E-1,3.0434981E-2,1.1935549E0,9.378061E-1,-8.041391E-2,7.604931E-1,-1.0709019E-1,1.3148582E-1,2.6040489E-2,-1.0307931E-1,3.5440204E-1,1.7293853E-1,-1.3600843E-1,-1.2188294E0,-2.1278328E-1,-1.0130349E0,-4.8190308E-1,-9.446906E-1,3.6173806E-1,-1.1249431E-1,5.210013E-1,4.763094E-1,1.0487511E0,1.9335337E-2,1.0566411E-1,-1.1715927E0,3.8292888E-1,8.432048E-1,-1.1024172E-1,-2.8885525E-1,4.4033083E-1,1.1334305E-1,3.2196283E-2,-1.323651E-1,7.18287E-2,-1.5874211E-1,8.445223E-2,1.2318063E-1,7.025527E-2,3.580316E-2,1.1307482E-1,6.7471913E-3,9.5715836E-2,9.07242E-2,-1.8860115E-2,5.3392565E-3,8.307754E-2,-1.4503227E-1,-7.231824E-2,1.2361663E-2,-4.2952683E-2,2.8506542E-2,-1.07169084E-1,-8.466968E-2,-1.8137243E-2,1.1143368E-1,-1.2271487E-1,-1.11779034E-1,7.877493E-2,8.967324E-2,2.0919481E-2,-1.12489965E-2,8.952471E-2,1.2808894E-1,8.696621E-2,-1.4312112E-1,7.658284E-2,1.0365861E-1,-9.9584684E-2,-8.047822E-3,9.667865E-2,9.018664E-2,-1.1128839E-1,-1.501408E-1,-3.5044437E-3,1.1188227E-2,1.06995456E-1],"categories":[],"categories_nodes":[],"categories_segments":[],"categories_sizes":[],"default_left":[0,0,0,0,0,0,0,0,0,0,0,0,0,0,0,0,0,0,0,0,0,0,0,0,0,0,0,0,0,0,0,0,0,0,0,0,0,0,0,0,0,0,0,0,0,0,0,0,0,0,0,0,0,0,0,0,0,0,0,0,0,0,0,0,0,0,0,0,0,0,0,0,0,0,0,0,0,0,0,0,0,0,0,0,0,0,0,0,0,0,0,0,0,0,0,0,0,0,0,0,0,0,0,0,0,0,0,0,0,0,0,0,0,0,0,0,0,0,0,0,0,0,0,0,0,0,0,0,0,0,0,0,0,0,0],"id":6,"left_children":[1,3,5,7,9,11,13,15,17,19,21,23,25,27,29,-1,-1,31,33,35,37,39,-1,41,43,45,47,-1,49,51,53,55,57,59,-1,61,-1,63,65,-1,67,-1,69,-1,-1,71,73,75,77,79,-1,81,83,85,87,89,91,93,-1,-1,95,97,-1,99,-1,-1,-1,-1,101,103,-1,105,107,109,111,113,115,-1,117,119,121,-1,-1,123,125,127,129,131,133,-1,-1,-1,-1,-1,-1,-1,-1,-1,-1,-1,-1,-1,-1,-1,-1,-1,-1,-1,-1,-1,-1,-1,-1,-1,-1,-1,-1,-1,-1,-1,-1,-1,-1,-1,-1,-1,-1,-1,-1,-1,-1,-1,-1,-1,-1],"loss_changes":[2.258132E2,2.396614E1,3.0302713E2,8.841766E0,8.4141865E0,1.1616344E2,3.446855E1,3.403688E0,5.1073303E0,5.1718655E0,6.012257E0,5.256041E1,9.351651E1,1.4478073E1,2.4077765E1,0E0,0E0,4.5824356E0,1.0525665E0,6.778956E0,2.0167017E0,9.726352E0,0E0,1.4515396E1,5.771713E-1,5.4241302E1,1.6265566E1,0E0,1.094223E1,8.662836E0,1.4807159E1,3.2220154E0,7.334498E0,1.0843811E0,0E0,4.436174E0,0E0,6.4495316E0,1.3373957E0,0E0,4.4456625E0,0E0,1.0201884E1,0E0,0E0,5.1551186E1,3.0966034E1,1.2224134E1,9.483675E0,6.661545E0,0E0,7.234309E-1,1.0181852E1,1.13975525E1,1.2462599E1,4.475052E0,8.259952E0,7.9709005E0,0E0,0E0,1.1538544E0,2.3043919E-1,0E0,1.4821815E0,0E0,0E0,0E0,0E0,3.9384544E0,8.19426E0,0E0,5.776207E0,2.633755E1,2.6753387E1,1.8036163E1,1.1061581E1,8.964255E0,0E0,1.149823E1,6.797642E0,5.491272E0,0E0,0E0,9.996679E0,6.4308887E0,1.0293507E1,1.6559956E1,1.1573441E1,1.2725185E1,0E0,0E0,0E0,0E0,0E0,0E0,0E0,0E0,0E0,0E0,0E0,0E0,0E0,0E0,0E0,0E0,0E0,0E0,0E0,0E0,0E0,0E0,0E0,0E0,0E0,0E0,0E0,0E0,0E0,0E0,0E0,0E0,0E0,0E0,0E0,0E0,0E0,0E0,0E0,0E0,0E0,0E0,0E0,0E0,0E0,0E0],"parents":[2147483647,0,0,1,1,2,2,3,3,4,4,5,5,6,6,7,7,8,8,9,9,10,10,11,11,12,12,13,13,14,14,17,17,18,18,19,19,20,20,21,21,23,23,24,24,25,25,26,26,28,28,29,29,30,30,31,31,32,32,33,33,35,35,37,37,38,38,40,40,42,42,45,45,46,46,47,47,48,48,49,49,51,51,52,52,53,53,54,54,55,55,56,56,57,57,60,60,61,61,63,63,68,68,69,69,71,71,72,72,73,73,74,74,75,75,76,76,78,78,79,79,80,80,83,83,84,84,85,85,86,86,87,87,88,88],"right_children":[2,4,6,8,10,12,14,16,18,20,22,24,26,28,30,-1,-1,32,34,36,38,40,-1,42,44,46,48,-1,50,52,54,56,58,60,-1,62,-1,64,66,-1,68,-1,70,-1,-1,72,74,76,78,80,-1,82,84,86,88,90,92,94,-1,-1,96,98,-1,100,-1,-1,-1,-1,102,104,-1,106,108,110,112,114,116,-1,118,120,122,-1,-1,124,126,128,130,132,134,-1,-1,-1,-1,-1,-1,-1,-1,-1,-1,-1,-1,-1,-1,-1,-1,-1,-1,-1,-1,-1,-1,-1,-1,-1,-1,-1,-1,-1,-1,-1,-1,-1,-1,-1,-1,-1,-1,-1,-1,-1,-1,-1,-1,-1,-1],"split_conditions":[4E0,1E0,3E0,2.3E1,1.7513868E0,1E0,2E0,4.2105265E0,1.1E1,2.6E1,4.9E1,0E0,1E1,1.8E1,2E1,-1.0950835E-1,4.5106325E-2,1.2E0,4.9E1,5E0,1E0,1.9857143E0,9.199954E-2,-8E0,1.6666668E-2,3E0,3.8166666E0,-1.1529209E-1,1E1,-2.6666667E0,1.68E0,3E0,1E0,2.4E1,2.2553908E-2,1E0,-1.1233234E-1,1E1,4E0,-1.2702861E-1,2E0,-1.3251485E-1,9.2E-1,1.2748353E-1,3.9673E-2,1.9E1,2.6E1,3E1,2.3E1,-1E0,-1.1382996E-1,8.5E-1,2.78E0,1E0,2E0,1E1,-5.2E-1,4.522222E0,1.0886969E-1,3.0434981E-2,4.625E0,2E1,-8.041391E-2,1E0,-1.0709019E-1,1.3148582E-1,2.6040489E-2,-1.0307931E-1,2.5E1,3.2E1,-1.3600843E-1,2E0,3.44E0,-8.167488E-1,3E0,1E0,-1.2E-1,-1.1249431E-1,2.6E1,3.5058053E0,1E0,1.9335337E-2,1.0566411E-1,6E0,-7E-1,2E0,5E0,-1.2E0,1.6666668E-2,1.1334305E-1,3.2196283E-2,-1.323651E-1,7.18287E-2,-1.5874211E-1,8.445223E-2,1.2318063E-1,7.025527E-2,3.580316E-2,1.1307482E-1,6.7471913E-3,9.5715836E-2,9.07242E-2,-1.8860115E-2,5.3392565E-3,8.307754E-2,-1.4503227E-1,-7.231824E-2,1.2361663E-2,-4.2952683E-2,2.8506542E-2,-1.07169084E-1,-8.466968E-2,-1.8137243E-2,1.1143368E-1,-1.2271487E-1,-1.11779034E-1,7.877493E-2,8.967324E-2,2.0919481E-2,-1.12489965E-2,8.952471E-2,1.2808894E-1,8.696621E-2,-1.4312112E-1,7.658284E-2,1.0365861E-1,-9.9584684E-2,-8.047822E-3,9.667865E-2,9.018664E-2,-1.1128839E-1,-1.501408E-1,-3.5044437E-3,1.1188227E-2,1.06995456E-1],"split_indices":[1,2,2,3,8,12,12,0,12,3,3,12,12,3,3,0,0,11,3,12,16,0,0,12,11,12,0,0,1,11,0,1,6,3,0,16,0,12,4,0,4,0,11,0,0,3,3,3,3,12,0,0,0,17,8,12,11,0,0,0,0,3,0,8,0,0,0,0,3,3,0,2,0,11,4,19,11,0,3,7,12,0,0,4,11,4,1,11,11,0,0,0,0,0,0,0,0,0,0,0,0,0,0,0,0,0,0,0,0,0,0,0,0,0,0,0,0,0,0,0,0,0,0,0,0,0,0,0,0,0,0,0,0,0,0],"split_type":[0,0,0,0,0,0,0,0,0,0,0,0,0,0,0,0,0,0,0,0,0,0,0,0,0,0,0,0,0,0,0,0,0,0,0,0,0,0,0,0,0,0,0,0,0,0,0,0,0,0,0,0,0,0,0,0,0,0,0,0,0,0,0,0,0,0,0,0,0,0,0,0,0,0,0,0,0,0,0,0,0,0,0,0,0,0,0,0,0,0,0,0,0,0,0,0,0,0,0,0,0,0,0,0,0,0,0,0,0,0,0,0,0,0,0,0,0,0,0,0,0,0,0,0,0,0,0,0,0,0,0,0,0,0,0],"sum_hessian":[1.9117759E3,2.7628903E2,1.6354868E3,2.2206279E2,5.4226234E1,1.2207954E3,4.146915E2,3.9441538E0,2.1811864E2,3.0568329E1,2.3657904E1,1.6259534E2,1.0582001E3,1.8827222E2,2.2641928E2,2.0692215E0,1.874932E0,1.0769247E2,1.1042617E2,8.687792E0,2.1880539E1,2.0610817E1,3.0470877E0,1.1382982E2,4.876551E1,9.2924664E2,1.289534E2,2.5425336E0,1.8572969E2,2.5706804E1,2.0071248E2,1.0096147E2,6.730999E0,1.0871824E2,1.7079334E0,5.798673E0,2.8891184E0,1.1754903E1,1.0125635E1,7.211485E0,1.3399331E1,6.5342836E0,1.0729554E2,4.6867203E1,1.898305E0,4.1797638E2,5.1127026E2,2.749362E1,1.0145978E2,1.8403032E2,1.6993725E0,4.021241E0,2.1685562E1,1.0282306E2,9.788942E1,6.3864147E1,3.709732E1,4.0078697E0,2.7231293E0,2.2047794E0,1.0651346E2,4.679119E0,1.119554E0,1.0348789E1,1.4061139E0,8.075726E0,2.0499094E0,1.8496162E0,1.1549715E1,1.0376137E2,3.5341702E0,5.848335E1,3.5949304E2,3.4635358E2,1.6491669E2,1.5668343E1,1.1825277E1,2.7134464E0,9.874634E1,2.6149355E1,1.5788095E2,2.5052967E0,1.5159447E0,1.6695408E1,4.9901557E0,8.8493385E1,1.4329675E1,3.677649E1,6.1112934E1,5.5015987E1,8.848157E0,1.1938449E0,3.5903477E1,2.6608944E0,1.3469752E0,9.7415565E1,9.097893E0,1.8813787E0,2.7977405E0,2.5844882E0,7.764301E0,5.3906374E0,6.1590776E0,8.871984E1,1.5041526E1,3.8551594E1,1.9931755E1,1.4103198E2,2.1846104E2,1.48068285E1,3.3154675E2,7.367287E1,9.124382E1,1.5348256E0,1.4133516E1,2.2806776E0,9.5446E0,4.3931877E1,5.4814457E1,1.1174936E1,1.497442E1,6.607769E1,9.180327E1,1.4952959E1,1.7424477E0,3.5536206E0,1.4365352E0,1.0483758E1,7.800963E1,7.181194E0,7.148481E0,5.5147805E0,3.126171E1,4.0936012E1,2.0176922E1],"tree_param":{"num_deleted":"0","num_feature":"21","num_nodes":"135","size_leaf_vector":"1"}},{"base_weights":[-6.705608E-4,5.6252944E-1,-1.8258718E-1,9.3601567E-1,3.3022183E-1,-5.530722E-1,3.5018665E-1,2.0691782E-1,1.0198375E0,-1.0222026E0,3.853515E-1,-1.5688765E-1,-7.582731E-1,9.073675E-1,1.8580303E-1,-5.5488396E-1,8.410398E-1,1.1587723E0,8.0875105E-1,-1.3698661E-1,8.691332E-2,1.0296483E0,2.8469098E-1,-5.3324395E-1,8.8604055E-2,-8.465763E-1,1.9145887E-1,3.97646E-1,1.1382986E0,-7.8115724E-2,5.830598E-1,-1.2359827E-1,4.26007E-1,1.0797344E-2,1.0228524E0,5.9929615E-1,1.2138712E0,8.7130994E-1,1.5127893E-1,7.495445E-1,1.2755501E0,-5.9498772E-2,5.877261E-1,3.996844E-1,-7.7997E-1,-6.050871E-1,2.6242155E-1,-1.0196817E0,-5.421109E-1,4.6391302E-1,-7.791565E-1,-1.8123198E-1,8.249408E-1,8.5981697E-1,1.2162799E0,-2.7793908E-1,2.2143194E-1,7.003796E-1,-2.8999406E-1,4.53844E-2,7.904837E-2,5.7211995E-1,1.22337535E-1,-2.6199418E-1,9.0171075E-1,1.223705E0,3.727992E-2,2.2792234E-1,9.684393E-1,-5.545575E-1,8.365688E-2,1.0947397E0,6.3126534E-2,3.0514717E-2,1.3900642E-1,-1.475231E-1,4.4196364E-2,-1.1478253E-1,6.534597E-1,-6.629001E-1,7.250888E-1,-1.3628952E-1,-5.362958E-1,-1.812935E-1,-1.1196375E0,3.7579167E-1,-6.4953786E-1,-1.0353509E0,6.176173E-1,-2.2307038E-1,-1.0571909E0,5.521326E-1,-1.0477262E-1,-1.5592243E-1,-5.314856E-3,-6.845704E-1,1.259044E-1,9.865198E-1,-1.0492956E-1,9.470763E-1,-6.3726627E-3,7.410009E-1,1.2586559E0,-1.5139267E-1,-1.3464931E0,3.9121774E-1,-4.9090013E-1,4.2412317E-1,9.673604E-1,2.393611E-1,-1.689224E-1,7.632364E-2,-7.5460084E-2,1.7302416E-2,8.6344525E-2,8.517538E-2,-1.40039E-1,2.8167639E-2,1.0358503E-1,3.8869217E-2,1.2336349E-1,7.986309E-2,-1.4233701E-1,1.0833707E-1,5.145008E-2,5.4347184E-2,-1.513704E-1,1.2325294E-1,5.9304904E-2,-1.411131E-1,1.0501625E-1,3.1474303E-2,-5.135073E-2,6.909798E-2,-1.2660933E-1,-1.4261197E-1,7.9700746E-2,-5.061703E-4,9.389505E-2,-2.4618043E-3,-9.688288E-2,1.0061356E-1,-5.283776E-2,-1.4215195E-1,1.6767194E-2,4.7853354E-2,-3.834591E-2,2.7335469E-2,-1.3581738E-1,-9.6299976E-2,-1.394687E-1,-7.991334E-2,1.6959143E-1,-3.210939E-2,1.4982356E-1,-1.1965626E-1,8.100252E-2,1.0087106E-2,8.48315E-2,-1.1516897E-1,7.129754E-2,7.730479E-3,-1.4962211E-1,-1.0164718E-2,1.1322266E-1,4.063363E-2,1.06826484E-1,1.138623E-1,-2.4634762E-2,6.748794E-2,1.2872432E-1,-7.591494E-2,-5.506711E-4,-1.6668196E-1,1.147662E-1,-4.078516E-2,5.734585E-2,-1.2654866E-1,3.753567E-2,1.0894658E-2,1.003374E-1,1.03937365E-1,-1.1539556E-1,-2.2059502E-2,1.19328715E-1],"categories":[],"categories_nodes":[],"categories_segments":[],"categories_sizes":[],"default_left":[0,0,0,0,0,0,0,0,0,0,0,0,0,0,0,0,0,0,0,0,0,0,0,0,0,0,0,0,0,0,0,0,0,0,0,0,0,0,0,0,0,0,0,0,0,0,0,0,0,0,0,0,0,0,0,0,0,0,0,0,0,0,0,0,0,0,0,0,0,0,0,0,0,0,0,0,0,0,0,0,0,0,0,0,0,0,0,0,0,0,0,0,0,0,0,0,0,0,0,0,0,0,0,0,0,0,0,0,0,0,0,0,0,0,0,0,0,0,0,0,0,0,0,0,0,0,0,0,0,0,0,0,0,0,0,0,0,0,0,0,0,0,0,0,0,0,0,0,0,0,0,0,0,0,0,0,0,0,0,0,0,0,0,0,0,0,0,0,0,0,0,0,0,0,0,0,0,0,0,0,0,0,0,0,0],"id":7,"left_children":[1,3,5,7,9,11,13,15,17,19,21,23,25,27,29,31,33,35,37,-1,-1,39,41,43,45,47,49,51,53,55,57,-1,59,-1,61,63,65,67,69,71,73,75,77,79,81,83,85,87,89,91,93,95,97,99,101,103,105,107,109,111,-1,113,-1,115,117,119,-1,121,123,125,-1,127,129,-1,-1,-1,131,-1,133,135,137,-1,139,141,143,145,147,149,151,153,155,157,-1,-1,159,161,-1,163,-1,165,-1,167,169,171,173,175,177,179,181,183,-1,-1,-1,-1,-1,-1,-1,-1,-1,-1,-1,-1,-1,-1,-1,-1,-1,-1,-1,-1,-1,-1,-1,-1,-1,-1,-1,-1,-1,-1,-1,-1,-1,-1,-1,-1,-1,-1,-1,-1,-1,-1,-1,-1,-1,-1,-1,-1,-1,-1,-1,-1,-1,-1,-1,-1,-1,-1,-1,-1,-1,-1,-1,-1,-1,-1,-1,-1,-1,-1,-1,-1,-1,-1,-1],"loss_changes":[1.9158672E2,3.9302002E1,2.7917908E2,1.0455078E1,2.1494984E1,6.768849E1,5.2985855E1,9.7660675E0,3.6460114E0,8.659384E0,1.738993E1,2.6458115E1,4.6221252E1,1.5079697E1,4.7161102E1,6.771324E0,1.34273E0,2.1065674E0,2.5557518E0,0E0,0E0,1.5551834E0,2.4774748E1,2.631995E1,2.112251E1,2.594049E1,1.2932158E1,1.0706288E1,9.1464996E-1,1.6276121E1,1.8588581E1,0E0,5.987071E-1,0E0,7.902336E-2,2.8975496E0,2.2794342E-1,3.4946938E0,3.7952998E0,4.54414E0,1.574976E0,1.6502058E1,1.515094E1,8.880636E0,1.2010178E1,7.4594345E0,1.4690128E1,8.832062E0,3.0057037E1,5.611826E0,6.5062795E0,1.4595738E1,8.525721E0,1.9268398E0,4.3917084E-1,2.1828758E1,1.3369288E1,1.1281998E1,1.6677792E1,2.470169E0,0E0,3.7753332E-1,0E0,5.5417547E0,3.559084E-1,1.947937E-1,0E0,9.718406E0,2.1215515E0,5.0291452E0,0E0,1.6034412E-1,1.25060835E1,0E0,0E0,0E0,1.6048897E1,0E0,9.680298E0,8.0647545E0,2.983449E0,0E0,1.4340723E1,8.964687E0,6.330578E0,9.927282E0,1.0714743E1,6.890106E0,6.9366026E0,1.9901676E1,1.9248344E1,4.7684336E0,0E0,0E0,6.1083946E0,9.197338E0,0E0,3.8073044E0,0E0,9.5679855E-1,0E0,3.424107E0,1.5104675E-1,1.3012514E1,1.5595926E1,1.3127207E1,1.4843817E1,1.4439668E1,1.33955E1,7.6415315E0,0E0,0E0,0E0,0E0,0E0,0E0,0E0,0E0,0E0,0E0,0E0,0E0,0E0,0E0,0E0,0E0,0E0,0E0,0E0,0E0,0E0,0E0,0E0,0E0,0E0,0E0,0E0,0E0,0E0,0E0,0E0,0E0,0E0,0E0,0E0,0E0,0E0,0E0,0E0,0E0,0E0,0E0,0E0,0E0,0E0,0E0,0E0,0E0,0E0,0E0,0E0,0E0,0E0,0E0,0E0,0E0,0E0,0E0,0E0,0E0,0E0,0E0,0E0,0E0,0E0,0E0,0E0,0E0,0E0,0E0,0E0,0E0,0E0,0E0,0E0],"parents":[2147483647,0,0,1,1,2,2,3,3,4,4,5,5,6,6,7,7,8,8,9,9,10,10,11,11,12,12,13,13,14,14,15,15,16,16,17,17,18,18,21,21,22,22,23,23,24,24,25,25,26,26,27,27,28,28,29,29,30,30,32,32,34,34,35,35,36,36,37,37,38,38,39,39,40,40,41,41,42,42,43,43,44,44,45,45,46,46,47,47,48,48,49,49,50,50,51,51,52,52,53,53,54,54,55,55,56,56,57,57,58,58,59,59,61,61,63,63,64,64,65,65,67,67,68,68,69,69,71,71,72,72,76,76,78,78,79,79,80,80,82,82,83,83,84,84,85,85,86,86,87,87,88,88,89,89,90,90,91,91,94,94,95,95,97,97,99,99,101,101,102,102,103,103,104,104,105,105,106,106,107,107,108,108,109,109],"right_children":[2,4,6,8,10,12,14,16,18,20,22,24,26,28,30,32,34,36,38,-1,-1,40,42,44,46,48,50,52,54,56,58,-1,60,-1,62,64,66,68,70,72,74,76,78,80,82,84,86,88,90,92,94,96,98,100,102,104,106,108,110,112,-1,114,-1,116,118,120,-1,122,124,126,-1,128,130,-1,-1,-1,132,-1,134,136,138,-1,140,142,144,146,148,150,152,154,156,158,-1,-1,160,162,-1,164,-1,166,-1,168,170,172,174,176,178,180,182,184,-1,-1,-1,-1,-1,-1,-1,-1,-1,-1,-1,-1,-1,-1,-1,-1,-1,-1,-1,-1,-1,-1,-1,-1,-1,-1,-1,-1,-1,-1,-1,-1,-1,-1,-1,-1,-1,-1,-1,-1,-1,-1,-1,-1,-1,-1,-1,-1,-1,-1,-1,-1,-1,-1,-1,-1,-1,-1,-1,-1,-1,-1,-1,-1,-1,-1,-1,-1,-1,-1,-1,-1,-1,-1,-1],"split_conditions":[5E0,3E0,2E0,2.96E0,2E1,2E0,1E0,3.4E1,1.6666668E-2,1E0,1.38E0,2.2E1,1E1,-1E0,4E0,4E0,0E0,2.7E1,1E0,-1.3698661E-1,8.691332E-2,7.2E-1,3.975E0,1E0,-3E0,2.5E1,2E-1,3.5058053E0,0E0,2.3E1,1E0,-1.2359827E-1,1E0,1.0797344E-2,-5.8E-1,3.5058053E0,1E0,1.8E-1,1.0266666E0,-1.2511111E0,2E0,1E0,2.3E1,-1E0,1.9E1,1E0,4.3333335E0,8E0,4.0666666E0,5E0,1E0,4E1,2.8E1,1E0,-8.75E-1,4E0,7E0,-1E-1,2.5E1,1E0,7.904837E-2,4.2E1,1.22337535E-1,3.0166667E0,2E0,-9E0,3.727992E-2,3.5058053E0,1E0,1.0666667E-1,8.365688E-2,4E0,1E0,3.0514717E-2,1.3900642E-1,-1.475231E-1,1.6666668E-2,-1.1478253E-1,4E1,5E0,1E0,-1.3628952E-1,3.7541666E0,1E0,3.5E1,1.4E1,1E0,3E0,7E0,7E0,9.2E-1,-8.881784E-16,-1.0477262E-1,-1.5592243E-1,4.233333E0,2.3E1,1.259044E-1,2E0,-1.0492956E-1,3E0,-6.3726627E-3,1.7513868E0,1.9E1,1.9E1,1E0,3E0,2.9E1,3E0,3.8E-1,2.4E1,-1.689224E-1,7.632364E-2,-7.5460084E-2,1.7302416E-2,8.6344525E-2,8.517538E-2,-1.40039E-1,2.8167639E-2,1.0358503E-1,3.8869217E-2,1.2336349E-1,7.986309E-2,-1.4233701E-1,1.0833707E-1,5.145008E-2,5.4347184E-2,-1.513704E-1,1.2325294E-1,5.9304904E-2,-1.411131E-1,1.0501625E-1,3.1474303E-2,-5.135073E-2,6.909798E-2,-1.2660933E-1,-1.4261197E-1,7.9700746E-2,-5.061703E-4,9.389505E-2,-2.4618043E-3,-9.688288E-2,1.0061356E-1,-5.283776E-2,-1.4215195E-1,1.6767194E-2,4.7853354E-2,-3.834591E-2,2.7335469E-2,-1.3581738E-1,-9.6299976E-2,-1.394687E-1,-7.991334E-2,1.6959143E-1,-3.210939E-2,1.4982356E-1,-1.1965626E-1,8.100252E-2,1.0087106E-2,8.48315E-2,-1.1516897E-1,7.129754E-2,7.730479E-3,-1.4962211E-1,-1.0164718E-2,1.1322266E-1,4.063363E-2,1.06826484E-1,1.138623E-1,-2.4634762E-2,6.748794E-2,1.2872432E-1,-7.591494E-2,-5.506711E-4,-1.6668196E-1,1.147662E-1,-4.078516E-2,5.734585E-2,-1.2654866E-1,3.753567E-2,1.0894658E-2,1.003374E-1,1.03937365E-1,-1.1539556E-1,-2.2059502E-2,1.19328715E-1],"split_indices":[1,1,2,0,3,12,12,3,11,9,0,3,12,12,2,7,12,3,20,0,0,0,0,12,12,3,11,7,12,3,17,0,17,0,11,7,14,11,11,11,4,8,3,12,3,16,0,8,0,8,16,3,3,5,11,12,12,11,3,8,0,3,0,0,8,12,0,7,15,11,0,12,15,0,0,0,11,0,3,7,2,0,0,8,3,1,12,8,12,1,11,11,0,0,0,3,0,4,0,7,0,8,3,3,9,7,3,8,11,3,0,0,0,0,0,0,0,0,0,0,0,0,0,0,0,0,0,0,0,0,0,0,0,0,0,0,0,0,0,0,0,0,0,0,0,0,0,0,0,0,0,0,0,0,0,0,0,0,0,0,0,0,0,0,0,0,0,0,0,0,0,0,0,0,0,0,0,0,0,0,0,0,0,0,0],"split_type":[0,0,0,0,0,0,0,0,0,0,0,0,0,0,0,0,0,0,0,0,0,0,0,0,0,0,0,0,0,0,0,0,0,0,0,0,0,0,0,0,0,0,0,0,0,0,0,0,0,0,0,0,0,0,0,0,0,0,0,0,0,0,0,0,0,0,0,0,0,0,0,0,0,0,0,0,0,0,0,0,0,0,0,0,0,0,0,0,0,0,0,0,0,0,0,0,0,0,0,0,0,0,0,0,0,0,0,0,0,0,0,0,0,0,0,0,0,0,0,0,0,0,0,0,0,0,0,0,0,0,0,0,0,0,0,0,0,0,0,0,0,0,0,0,0,0,0,0,0,0,0,0,0,0,0,0,0,0,0,0,0,0,0,0,0,0,0,0,0,0,0,0,0,0,0,0,0,0,0,0,0,0,0,0,0],"sum_hessian":[1.867949E3,4.5553992E2,1.4124092E3,1.7352715E2,2.8201276E2,8.3306604E2,5.793431E2,1.8250393E1,1.5527676E2,1.0358539E1,2.716542E2,2.8485553E2,5.482105E2,1.3095369E2,4.4838937E2,8.347314E0,9.903079E0,9.0934875E1,6.434188E1,8.9830065E0,1.3755325E0,3.5459583E1,2.3619463E2,1.1199186E2,1.7286368E2,5.0167496E2,4.653558E1,4.1679268E1,8.927443E1,2.698903E2,1.7849908E2,4.7730217E0,3.574292E0,2.284773E0,7.6183057E0,9.217452E0,8.171742E1,5.8454643E1,5.8872375E0,1.8469433E1,1.6990152E1,1.10964226E2,1.252304E2,2.329356E1,8.86983E1,3.413852E1,1.3872516E2,3.183349E2,1.8334006E2,3.6743603E1,9.791979E0,1.7944628E1,2.3734638E1,2.2160883E1,6.711355E1,1.6193694E2,1.0795335E2,1.575284E2,2.0970686E1,2.2984953E0,1.2757967E0,3.532082E0,4.0862236E0,2.4300938E0,6.787358E0,8.032336E1,1.3940723E0,8.106112E0,5.0348534E1,2.9941182E0,2.8931196E0,1.189344E1,6.575992E0,2.1801412E0,1.4810011E1,6.6702194E0,1.0429401E2,3.969255E0,1.2126115E2,5.2178593E0,1.80757E1,2.479347E1,6.390483E1,1.946177E1,1.467675E1,1.2390931E2,1.4815842E1,3.156814E2,2.65348E0,1.1409976E2,6.9240295E1,3.5317226E1,1.4263752E0,4.3709483E0,5.42103E0,1.3686317E1,4.2583113E0,2.2286913E1,1.4477264E0,2.0224524E1,1.9363592E0,7.007332E0,6.0106216E1,1.4581061E2,1.6126335E1,8.753903E1,2.0414314E1,7.8691505E1,7.88369E1,1.58160925E1,5.154594E0,1.2356471E0,1.0628482E0,2.1629326E0,1.3691496E0,1.3556197E0,1.0744741E0,1.7585715E0,5.028786E0,1.4157367E0,7.8907616E1,6.407838E0,1.6982735E0,3.9069927E1,1.1278605E1,1.5980515E0,1.3960667E0,8.18788E0,3.7055612E0,2.46482E0,4.111172E0,7.0519875E1,3.377413E1,1.1956415E2,1.6969975E0,3.4417195E0,1.7761399E0,4.3161526E0,1.3759547E1,2.9758293E1,3.4146538E1,3.9724774E0,1.5489291E1,1.1804311E1,2.8724399E0,1.0946608E2,1.4443229E1,6.701886E0,8.113955E0,2.6583612E2,4.9845284E1,1.2586545E0,1.3948255E0,1.08721825E2,5.3779407E0,6.4765305E1,4.474998E0,1.452603E1,2.0791197E1,1.855815E0,3.5652149E0,7.526317E0,6.16E0,2.667544E0,1.9619368E1,4.4997377E0,1.5724787E1,4.8863163E0,2.1210155E0,3.954736E0,5.6151478E1,2.7411472E1,1.18399124E2,1.4584895E1,1.5414408E0,1.6027113E1,7.151192E1,1.05341015E1,9.880214E0,5.173177E1,2.6959734E1,7.6741745E1,2.0951514E0,1.1189555E1,4.6265364E0],"tree_param":{"num_deleted":"0","num_feature":"21","num_nodes":"185","size_leaf_vector":"1"}},{"base_weights":[-6.566027E-4,7.3860776E-1,-1.2239013E-1,8.7102026E-1,2.0554937E-1,-3.3739686E-1,5.1371604E-1,-9.12354E-2,8.886553E-1,4.201592E-1,-3.9874986E-1,3.3834097E-1,-4.413139E-1,8.056561E-1,2.7752826E-1,7.22702E-1,1.0490831E0,5.28955E-1,-4.1777256E-1,-1.3418923E-1,3.9968857E-1,5.6899907E-3,1.1574669E0,-5.356195E-1,2.2709702E-1,-1.1005505E-1,8.38798E-1,-5.1783943E-1,3.8006157E-1,7.7113074E-1,-2.5726485E-3,3.242748E-2,1.0753422E0,1.4880437E-1,7.4369854E-1,-1.16161756E-1,7.174527E-2,9.531416E-1,-1.0665915E-1,-1.2430382E-1,8.865557E-2,1.1852866E-1,3.2328986E-2,-4.059762E-1,-9.2173606E-1,-6.724002E-2,5.87914E-1,8.64374E-1,-1.1167909E-1,5.831206E-1,-7.439277E-1,6.7307293E-1,1.6614944E-1,5.2778137E-1,9.275573E-1,-7.551644E-1,1.0322191E-1,-9.545045E-2,9.0968475E-2,1.1583842E0,7.796258E-1,-9.7732894E-2,4.4685847E-1,-1.0449476E-2,8.756902E-1,2.2125512E-2,1.1692913E-1,1.4424768E-1,-1.2445662E-1,-8.9504975E-1,-2.938984E-1,1.2399262E-2,-9.890272E-1,9.563845E-2,-9.589688E-1,7.78586E-1,-1.9297628E-1,8.892735E-1,-3.9856166E-1,1.499905E-2,9.568881E-2,-1.0972335E0,3.8092652E-1,1.0561805E0,2.3806785E-1,-2.922791E-1,4.3058464E-1,6.56478E-2,-7.627227E-2,9.982091E-2,-3.7745383E-2,-1.505001E-1,7.8524895E-2,4.951168E-2,1.1771398E-1,8.887246E-2,-2.4232542E-2,7.357557E-2,-9.2871085E-2,2.0459294E-2,9.5456965E-2,3.4687358E-3,7.523533E-2,-5.5516746E-2,-1.1372111E-1,-3.3844677E-3,-5.1527023E-2,7.21353E-2,-1.2562978E-1,-5.5693943E-2,-1.168466E-1,-3.5599675E-2,4.6226192E-2,3.6489074E-3,-1.7531125E-1,-7.828987E-2,8.341252E-2,-1.4177679E-1,2.1534173E-2,-3.2629073E-2,9.164689E-2,8.648258E-2,-1.3759421E-1,-1.3522647E-1,7.179389E-2,9.9496625E-2,-9.388023E-2,-1.401964E-1,1.1580654E-1,-1.6588084E-1,3.7466623E-2,7.576426E-3,-1.3456497E-1,1.5565934E-2,9.98073E-2],"categories":[],"categories_nodes":[],"categories_segments":[],"categories_sizes":[],"default_left":[0,0,0,0,0,0,0,0,0,0,0,0,0,0,0,0,0,0,0,0,0,0,0,0,0,0,0,0,0,0,0,0,0,0,0,0,0,0,0,0,0,0,0,0,0,0,0,0,0,0,0,0,0,0,0,0,0,0,0,0,0,0,0,0,0,0,0,0,0,0,0,0,0,0,0,0,0,0,0,0,0,0,0,0,0,0,0,0,0,0,0,0,0,0,0,0,0,0,0,0,0,0,0,0,0,0,0,0,0,0,0,0,0,0,0,0,0,0,0,0,0,0,0,0,0,0,0,0,0,0,0,0,0,0,0],"id":8,"left_children":[1,3,5,7,9,11,13,-1,15,17,19,21,23,25,27,29,31,33,35,-1,37,39,41,43,45,-1,47,49,51,53,55,57,59,61,63,-1,-1,65,-1,-1,67,-1,-1,69,71,73,75,77,-1,79,81,83,85,87,89,91,-1,-1,-1,93,95,-1,97,-1,99,-1,-1,101,-1,103,105,107,109,111,113,115,117,119,121,-1,-1,123,125,127,129,131,133,-1,-1,-1,-1,-1,-1,-1,-1,-1,-1,-1,-1,-1,-1,-1,-1,-1,-1,-1,-1,-1,-1,-1,-1,-1,-1,-1,-1,-1,-1,-1,-1,-1,-1,-1,-1,-1,-1,-1,-1,-1,-1,-1,-1,-1,-1,-1,-1],"loss_changes":[1.6427895E2,1.8038269E1,2.145364E2,7.3030243E0,6.997403E0,8.244925E1,2.7105118E1,0E0,4.6974487E0,3.8081803E0,1.1315754E1,4.271321E1,6.4180176E1,1.2087769E1,1.8188374E1,3.6527214E0,2.6875916E0,2.7684708E0,5.1236463E0,0E0,7.9327173E0,1.1765802E1,6.674843E-1,4.422119E1,1.3458611E1,0E0,9.681732E0,6.8099494E0,1.2173164E1,3.2194786E0,6.622278E0,3.9840817E0,1.5373535E0,5.1295195E0,2.5866547E0,0E0,0E0,8.0360985E-1,0E0,0E0,8.067648E0,0E0,0E0,3.639321E1,1.4039169E1,1.032925E1,8.61772E0,5.781662E0,0E0,6.537423E-1,9.038391E0,1.3477554E1,1.4020527E1,7.218026E0,5.723568E0,6.865879E0,0E0,0E0,0E0,3.5679626E-1,2.985674E0,0E0,5.3493543E0,0E0,8.3126545E-1,0E0,0E0,6.840497E0,0E0,9.590218E0,3.1388885E1,1.5281353E1,1.548909E1,1.018358E1,8.741511E0,4.63426E0,6.2876134E0,5.904236E0,6.162984E0,0E0,0E0,8.731447E0,5.73699E0,1.2521084E1,1.095177E1,1.658839E1,1.1248544E1,0E0,0E0,0E0,0E0,0E0,0E0,0E0,0E0,0E0,0E0,0E0,0E0,0E0,0E0,0E0,0E0,0E0,0E0,0E0,0E0,0E0,0E0,0E0,0E0,0E0,0E0,0E0,0E0,0E0,0E0,0E0,0E0,0E0,0E0,0E0,0E0,0E0,0E0,0E0,0E0,0E0,0E0,0E0,0E0,0E0,0E0,0E0,0E0],"parents":[2147483647,0,0,1,1,2,2,3,3,4,4,5,5,6,6,8,8,9,9,10,10,11,11,12,12,13,13,14,14,15,15,16,16,17,17,18,18,20,20,21,21,22,22,23,23,24,24,26,26,27,27,28,28,29,29,30,30,31,31,32,32,33,33,34,34,37,37,40,40,43,43,44,44,45,45,46,46,47,47,49,49,50,50,51,51,52,52,53,53,54,54,55,55,59,59,60,60,62,62,64,64,67,67,69,69,70,70,71,71,72,72,73,73,74,74,75,75,76,76,77,77,78,78,81,81,82,82,83,83,84,84,85,85,86,86],"right_children":[2,4,6,8,10,12,14,-1,16,18,20,22,24,26,28,30,32,34,36,-1,38,40,42,44,46,-1,48,50,52,54,56,58,60,62,64,-1,-1,66,-1,-1,68,-1,-1,70,72,74,76,78,-1,80,82,84,86,88,90,92,-1,-1,-1,94,96,-1,98,-1,100,-1,-1,102,-1,104,106,108,110,112,114,116,118,120,122,-1,-1,124,126,128,130,132,134,-1,-1,-1,-1,-1,-1,-1,-1,-1,-1,-1,-1,-1,-1,-1,-1,-1,-1,-1,-1,-1,-1,-1,-1,-1,-1,-1,-1,-1,-1,-1,-1,-1,-1,-1,-1,-1,-1,-1,-1,-1,-1,-1,-1,-1,-1,-1,-1],"split_conditions":[4E0,1E0,3E0,2.2E1,1E1,1E0,2E0,-9.12354E-2,1.1E1,4.4E-1,4E0,0E0,1E1,1.8E1,2E1,1.2E0,2.4E1,-5.8E-1,1E0,-1.3418923E-1,3E0,-8E0,1.6666668E-2,4.12E0,4.24E0,-1.1005505E-1,1E1,-2.6666667E0,1.46E0,2.524674E0,1E0,1.0666667E-1,3.5E-1,2.4E1,7.2E-1,-1.16161756E-1,7.174527E-2,1.75E-1,-1.0665915E-1,-1.2430382E-1,9.2E-1,1.1852866E-1,3.2328986E-2,2E1,5E0,4.1096773E0,3.6E-1,5E0,-1.1167909E-1,8.5E-1,2.78E0,-1.54E0,2E0,4.522222E0,4E1,4.522222E0,1.0322191E-1,-9.545045E-2,9.0968475E-2,2.5E1,1E0,-9.7732894E-2,1E0,-1.0449476E-2,2E0,2.2125512E-2,1.1692913E-1,3.2E1,-1.2445662E-1,3.36E0,3E0,4.4166665E0,3E0,3.8166666E0,2.5E1,2.3E1,4.75E-1,-5E0,9.6E-1,1.499905E-2,9.568881E-2,6E0,-7E-1,1E0,-1.3E0,1E0,1.6666668E-2,6.56478E-2,-7.627227E-2,9.982091E-2,-3.7745383E-2,-1.505001E-1,7.8524895E-2,4.951168E-2,1.1771398E-1,8.887246E-2,-2.4232542E-2,7.357557E-2,-9.2871085E-2,2.0459294E-2,9.5456965E-2,3.4687358E-3,7.523533E-2,-5.5516746E-2,-1.1372111E-1,-3.3844677E-3,-5.1527023E-2,7.21353E-2,-1.2562978E-1,-5.5693943E-2,-1.168466E-1,-3.5599675E-2,4.6226192E-2,3.6489074E-3,-1.7531125E-1,-7.828987E-2,8.341252E-2,-1.4177679E-1,2.1534173E-2,-3.2629073E-2,9.164689E-2,8.648258E-2,-1.3759421E-1,-1.3522647E-1,7.179389E-2,9.9496625E-2,-9.388023E-2,-1.401964E-1,1.1580654E-1,-1.6588084E-1,3.7466623E-2,7.576426E-3,-1.3456497E-1,1.5565934E-2,9.98073E-2],"split_indices":[1,2,2,3,12,12,12,0,12,11,7,12,12,3,3,11,3,11,17,0,1,12,11,0,0,0,1,11,0,4,6,11,11,3,0,0,0,0,0,0,11,0,0,3,1,0,11,8,0,0,0,11,8,0,3,0,0,0,0,3,20,0,6,0,4,0,0,3,0,0,12,0,12,0,3,3,11,12,0,0,0,4,11,8,11,16,11,0,0,0,0,0,0,0,0,0,0,0,0,0,0,0,0,0,0,0,0,0,0,0,0,0,0,0,0,0,0,0,0,0,0,0,0,0,0,0,0,0,0,0,0,0,0,0,0],"split_type":[0,0,0,0,0,0,0,0,0,0,0,0,0,0,0,0,0,0,0,0,0,0,0,0,0,0,0,0,0,0,0,0,0,0,0,0,0,0,0,0,0,0,0,0,0,0,0,0,0,0,0,0,0,0,0,0,0,0,0,0,0,0,0,0,0,0,0,0,0,0,0,0,0,0,0,0,0,0,0,0,0,0,0,0,0,0,0,0,0,0,0,0,0,0,0,0,0,0,0,0,0,0,0,0,0,0,0,0,0,0,0,0,0,0,0,0,0,0,0,0,0,0,0,0,0,0,0,0,0,0,0,0,0,0,0],"sum_hessian":[1.8234541E3,2.5709543E2,1.5663586E3,2.0543184E2,5.166359E1,1.1710187E3,3.9533997E2,1.514752E0,2.0391708E2,3.834908E1,1.3314511E1,1.5577965E2,1.015239E3,1.757245E2,2.1961546E2,1.0293828E2,1.00978806E2,3.426845E1,4.080626E0,5.7920737E0,7.522438E0,1.115042E2,4.427544E1,8.8988446E2,1.2535453E2,2.4525967E0,1.732719E2,2.4615849E1,1.949996E2,9.643576E1,6.502523E0,2.5987618E0,9.838004E1,1.2981262E1,2.128719E1,2.4512322E0,1.6293937E0,5.7151804E0,1.8072574E0,6.0756745E0,1.0542853E2,4.24392E1,1.8362417E0,6.677356E2,2.2214888E2,6.948537E1,5.5869164E1,1.7158583E2,1.686072E0,3.924743E0,2.0691105E1,8.138037E1,1.1361924E2,3.94454E1,5.6990356E1,3.92103E0,2.581493E0,1.1814977E0,1.4172641E0,7.453279E1,2.3847258E1,2.239764E0,1.0741499E1,2.8945854E0,1.8392605E1,1.7644255E0,3.950755E0,1.0206449E2,3.3640368E0,1.23189224E2,5.445464E2,1.4982164E1,2.0716672E2,5.950859E1,9.976775E0,4.4907043E1,1.0962118E1,1.6855846E2,3.027367E0,2.467103E0,1.4576399E0,1.5764259E1,4.926846E0,4.2512115E1,3.8868256E1,4.152523E1,7.209401E1,3.6315144E1,3.1302578E0,5.4286446E1,2.7039115E0,2.652732E0,1.2682981E0,2.803093E0,7.17297E1,2.1664787E1,2.1824694E0,9.261519E0,1.479979E0,2.3124328E0,1.6080172E1,8.737879E1,1.46857E1,5.262319E1,7.056603E1,2.5092651E2,2.9361984E2,9.888082E0,5.094083E0,6.19926E1,1.4517412E2,2.6676008E1,3.2832584E1,4.850604E0,5.1261716E0,1.0925887E0,4.3814453E1,2.1226869E0,8.839432E0,3.4478939E0,1.6511057E2,1.3707106E0,1.6566565E0,1.4045844E1,1.7184155E0,3.5303416E0,1.3965045E0,1.1840739E0,4.132804E1,1.8623935E0,3.700586E1,3.146097E1,1.006426E1,4.9424248E1,2.2669764E1],"tree_param":{"num_deleted":"0","num_feature":"21","num_nodes":"135","size_leaf_vector":"1"}},{"base_weights":[-1.0801322E-3,6.9304293E-1,-1.13363445E-1,8.20622E-1,1.8702814E-1,-3.9229563E-1,3.1084445E-1,4.0300485E-1,9.0810907E-1,4.937067E-1,-2.0855045E-1,-4.807589E-1,2.3724139E-1,8.1180054E-1,1.7534721E-1,7.8410155E-1,-1.782931E-1,9.8934454E-1,6.440096E-1,5.7892996E-1,-8.744197E-2,-3.8178098E-1,7.841176E-2,-1.1960403E-1,-6.8537486E-1,-4.6246808E-2,5.403589E-1,2.8295308E-1,1.0715882E0,4.9444145E-1,-8.065026E-2,9.048882E-1,-3.5899398E-1,4.144386E-1,1.0131065E0,3.3077486E-2,8.152137E-1,2.728889E-2,7.7343506E-1,-1.1764341E-1,6.751692E-2,-4.7577602E-1,8.684214E-2,-8.303121E-1,-3.6533946E-1,-2.4814437E-1,7.7116543E-1,7.2165143E-1,-1.8450493E-1,-1.01709984E-1,5.7245517E-1,6.398834E-1,1.1144391E0,-1.982182E-1,5.803624E-1,-2.000215E-2,-1.5239581E-1,1.0204777E0,2.2178675E-1,-1.3413113E-1,8.1790596E-2,-1.7586975E-1,8.641753E-2,1.0251464E0,6.9762445E-3,3.7970236E-1,-1.38954E-1,-4.6901386E-2,9.1341966E-1,5.845938E-1,-9.752198E-2,9.476017E-1,6.507143E-2,6.1262906E-1,-3.9492336E-1,3.4076798E-1,-6.9226074E-1,2.009051E-1,-5.8452356E-1,5.108731E-1,-8.830469E-1,-1.0906367E0,-2.3236108E-1,-1.0253669E0,-3.4468719E-3,-1.18061446E-1,1.2900142E-1,1.042468E0,3.9629802E-1,-6.219686E-1,8.571363E-2,-4.9149483E-1,1.1571421E-1,7.7784586E-1,-1.1444568E-1,1.140247E-1,-6.595857E-1,8.4913653E-1,1.1738541E0,-6.3034266E-1,3.0926782E-1,7.230683E-1,9.225179E-2,-6.802584E-1,9.306776E-2,1.8847045E-3,1.08727E-1,-3.3918288E-2,6.503833E-2,7.8025214E-2,-1.0006479E-1,1.0411847E-1,2.833869E-2,-3.203575E-2,6.3926555E-2,-1.18108345E-2,9.828009E-2,1.0365689E-1,-5.986796E-3,-1.6628078E-3,1.1147856E-1,-1.0100291E-1,9.442535E-2,1.1128978E-1,-8.293901E-4,-1.2729785E-1,2.5196819E-2,-5.2630927E-2,6.829257E-2,-1.2786543E-1,-4.6139356E-2,-2.4066777E-3,6.0023583E-2,2.584306E-2,-9.821777E-2,8.44074E-2,-1.0156409E-1,-9.1196045E-2,1.4584447E-1,-1.6099142E-2,-1.535325E-1,1.3945221E-2,-6.9088854E-2,-1.3665852E-1,5.025632E-2,3.1608727E-2,-8.566836E-2,6.5005505E-3,1.14949726E-1,6.9473974E-2,-1.0019501E-1,-1.6072588E-1,7.818847E-2,-1.3598146E-1,1.42004145E-2,-2.6645953E-2,9.391924E-2,-1.6136375E-1,6.9636986E-2,9.7716816E-2,-2.1192098E-2,7.6423325E-2,1.21358015E-1,-4.0204935E-3,-1.413334E-1,-1.1277616E-1,7.987882E-2,7.786507E-2,-9.452506E-2,5.113439E-2,-6.5549426E-2,-1.491404E-1,-1.6280346E-2,-6.868715E-2,2.2136252E-2],"categories":[],"categories_nodes":[],"categories_segments":[],"categories_sizes":[],"default_left":[0,0,0,0,0,0,0,0,0,0,0,0,0,0,0,0,0,0,0,0,0,0,0,0,0,0,0,0,0,0,0,0,0,0,0,0,0,0,0,0,0,0,0,0,0,0,0,0,0,0,0,0,0,0,0,0,0,0,0,0,0,0,0,0,0,0,0,0,0,0,0,0,0,0,0,0,0,0,0,0,0,0,0,0,0,0,0,0,0,0,0,0,0,0,0,0,0,0,0,0,0,0,0,0,0,0,0,0,0,0,0,0,0,0,0,0,0,0,0,0,0,0,0,0,0,0,0,0,0,0,0,0,0,0,0,0,0,0,0,0,0,0,0,0,0,0,0,0,0,0,0,0,0,0,0,0,0,0,0,0,0,0,0,0,0,0,0,0,0,0,0,0,0,0,0],"id":9,"left_children":[1,3,5,7,9,11,13,15,17,19,21,23,25,27,29,31,-1,33,35,37,-1,39,-1,41,43,45,47,49,51,53,55,57,59,61,63,65,67,69,71,-1,73,75,77,79,81,83,85,87,89,91,93,95,97,99,101,103,-1,105,107,-1,-1,109,-1,111,-1,113,-1,-1,115,117,-1,119,121,123,125,127,129,131,133,135,137,139,141,143,145,-1,-1,147,149,151,-1,153,-1,155,-1,-1,157,159,161,163,165,167,169,171,173,-1,-1,-1,-1,-1,-1,-1,-1,-1,-1,-1,-1,-1,-1,-1,-1,-1,-1,-1,-1,-1,-1,-1,-1,-1,-1,-1,-1,-1,-1,-1,-1,-1,-1,-1,-1,-1,-1,-1,-1,-1,-1,-1,-1,-1,-1,-1,-1,-1,-1,-1,-1,-1,-1,-1,-1,-1,-1,-1,-1,-1,-1,-1,-1,-1,-1,-1,-1,-1,-1],"loss_changes":[1.3897604E2,1.5875008E1,1.8173447E2,6.867996E0,6.3251424E0,5.170781E1,4.122456E1,3.1464407E1,2.8578339E0,3.9094367E0,4.2718625E0,5.996884E1,9.890902E0,1.74842E1,3.9328243E1,4.664173E0,0E0,1.2565613E0,4.2808247E0,2.9915886E0,0E0,7.3420362E0,0E0,2.1740227E1,2.3748016E1,1.0134408E1,7.4349995E0,4.958935E0,8.86322E-1,1.2865074E1,2.3404484E1,2.0404968E0,5.397134E0,1.8943759E0,1.2590942E0,5.4871464E0,4.480377E0,5.2386074E0,2.494897E0,0E0,3.7559829E0,1.9404472E1,1.4488287E1,2.5637238E1,1.5507565E1,9.329115E0,1.3854464E1,4.247526E0,5.961641E0,1.0258203E1,9.79803E0,7.3552933E0,2.2179413E-1,5.543077E0,1.3227074E1,1.9319971E1,0E0,1.6036224E0,1.5267388E0,0E0,0E0,3.6740258E0,0E0,1.080246E0,0E0,1.8170146E0,0E0,0E0,2.2763863E0,1.8084824E0,0E0,2.6878948E0,5.8340545E0,2.1184266E0,4.9499936E0,7.3001366E0,1.1058533E1,1.4492239E1,9.474937E0,8.03188E0,2.4551208E1,1.0107698E1,2.3856205E1,6.811059E0,1.07196E1,0E0,0E0,2.2131634E0,1.0620316E1,1.3662769E1,0E0,8.873412E0,0E0,4.1520824E0,0E0,0E0,5.595617E0,2.6197453E0,5.7777405E-2,6.181599E0,9.262572E0,1.4416122E1,1.4224172E1,1.56375675E1,2.2276482E1,0E0,0E0,0E0,0E0,0E0,0E0,0E0,0E0,0E0,0E0,0E0,0E0,0E0,0E0,0E0,0E0,0E0,0E0,0E0,0E0,0E0,0E0,0E0,0E0,0E0,0E0,0E0,0E0,0E0,0E0,0E0,0E0,0E0,0E0,0E0,0E0,0E0,0E0,0E0,0E0,0E0,0E0,0E0,0E0,0E0,0E0,0E0,0E0,0E0,0E0,0E0,0E0,0E0,0E0,0E0,0E0,0E0,0E0,0E0,0E0,0E0,0E0,0E0,0E0,0E0,0E0,0E0,0E0,0E0,0E0],"parents":[2147483647,0,0,1,1,2,2,3,3,4,4,5,5,6,6,7,7,8,8,9,9,10,10,11,11,12,12,13,13,14,14,15,15,17,17,18,18,19,19,21,21,23,23,24,24,25,25,26,26,27,27,28,28,29,29,30,30,31,31,32,32,33,33,34,34,35,35,36,36,37,37,38,38,40,40,41,41,42,42,43,43,44,44,45,45,46,46,47,47,48,48,49,49,50,50,51,51,52,52,53,53,54,54,55,55,57,57,58,58,61,61,63,63,65,65,68,68,69,69,71,71,72,72,73,73,74,74,75,75,76,76,77,77,78,78,79,79,80,80,81,81,82,82,83,83,84,84,87,87,88,88,89,89,91,91,93,93,96,96,97,97,98,98,99,99,100,100,101,101,102,102,103,103,104,104],"right_children":[2,4,6,8,10,12,14,16,18,20,22,24,26,28,30,32,-1,34,36,38,-1,40,-1,42,44,46,48,50,52,54,56,58,60,62,64,66,68,70,72,-1,74,76,78,80,82,84,86,88,90,92,94,96,98,100,102,104,-1,106,108,-1,-1,110,-1,112,-1,114,-1,-1,116,118,-1,120,122,124,126,128,130,132,134,136,138,140,142,144,146,-1,-1,148,150,152,-1,154,-1,156,-1,-1,158,160,162,164,166,168,170,172,174,-1,-1,-1,-1,-1,-1,-1,-1,-1,-1,-1,-1,-1,-1,-1,-1,-1,-1,-1,-1,-1,-1,-1,-1,-1,-1,-1,-1,-1,-1,-1,-1,-1,-1,-1,-1,-1,-1,-1,-1,-1,-1,-1,-1,-1,-1,-1,-1,-1,-1,-1,-1,-1,-1,-1,-1,-1,-1,-1,-1,-1,-1,-1,-1,-1,-1,-1,-1,-1,-1],"split_conditions":[4E0,1E0,2E0,7E0,1.7513868E0,1E1,1E0,5E0,4.3333334E-1,3.34E0,4.9E1,2E0,4.24E0,-1E0,2.2333333E0,9.2E-1,-1.782931E-1,2.4E1,3E0,2.6E1,-8.744197E-2,1.9857143E0,7.841176E-2,2.2E1,2.6E1,1E0,3.6E-1,3.5058053E0,-8.75E-1,2E1,5E0,3.9E1,6E0,1.0666667E-1,1E0,1E0,5.2E-1,1E0,4E0,-1.1764341E-1,2.5E1,1E0,4.3333335E0,2.96E0,3.62E0,3.8166666E0,-8.881784E-16,3.5058053E0,4.5576925E0,4E1,2.8E1,-2.0333333E0,2E1,3.5058053E0,6E0,-7.75E-1,-1.5239581E-1,-7E0,4.2105265E0,-1.3413113E-1,8.1790596E-2,3.0166667E0,8.641753E-2,6E0,6.9762445E-3,3.1E1,-1.38954E-1,-4.6901386E-2,3.12E0,2E0,-9.752198E-2,0E0,2E0,2.875E0,3.2E1,1E0,1.9E1,3.975E0,1E0,-1E-1,9E0,3.175E0,4.08E0,3.2E1,4.1096773E0,-1.18061446E-1,1.2900142E-1,2.5E1,2.8E1,3E0,8.571363E-2,3E0,1.1571421E-1,2E0,-1.1444568E-1,1.140247E-1,2.3E0,3E0,1E0,1.24E0,2.524674E0,3.5E1,1.24E0,2.2E1,2E0,1.8847045E-3,1.08727E-1,-3.3918288E-2,6.503833E-2,7.8025214E-2,-1.0006479E-1,1.0411847E-1,2.833869E-2,-3.203575E-2,6.3926555E-2,-1.18108345E-2,9.828009E-2,1.0365689E-1,-5.986796E-3,-1.6628078E-3,1.1147856E-1,-1.0100291E-1,9.442535E-2,1.1128978E-1,-8.293901E-4,-1.2729785E-1,2.5196819E-2,-5.2630927E-2,6.829257E-2,-1.2786543E-1,-4.6139356E-2,-2.4066777E-3,6.0023583E-2,2.584306E-2,-9.821777E-2,8.44074E-2,-1.0156409E-1,-9.1196045E-2,1.4584447E-1,-1.6099142E-2,-1.535325E-1,1.3945221E-2,-6.9088854E-2,-1.3665852E-1,5.025632E-2,3.1608727E-2,-8.566836E-2,6.5005505E-3,1.14949726E-1,6.9473974E-2,-1.0019501E-1,-1.6072588E-1,7.818847E-2,-1.3598146E-1,1.42004145E-2,-2.6645953E-2,9.391924E-2,-1.6136375E-1,6.9636986E-2,9.7716816E-2,-2.1192098E-2,7.6423325E-2,1.21358015E-1,-4.0204935E-3,-1.413334E-1,-1.1277616E-1,7.987882E-2,7.786507E-2,-9.452506E-2,5.113439E-2,-6.5549426E-2,-1.491404E-1,-1.6280346E-2,-6.868715E-2,2.2136252E-2],"split_indices":[1,2,2,12,8,12,12,12,11,0,3,12,0,12,0,11,0,3,7,3,0,0,0,3,3,17,11,7,11,3,8,3,7,11,14,5,11,16,4,0,3,12,0,0,0,0,11,7,0,3,3,11,3,7,12,11,0,12,0,0,0,0,0,7,0,3,0,0,0,4,0,12,2,0,3,2,3,0,13,11,1,0,0,3,0,0,0,3,3,8,0,7,0,4,0,0,0,8,13,0,4,3,0,3,4,0,0,0,0,0,0,0,0,0,0,0,0,0,0,0,0,0,0,0,0,0,0,0,0,0,0,0,0,0,0,0,0,0,0,0,0,0,0,0,0,0,0,0,0,0,0,0,0,0,0,0,0,0,0,0,0,0,0,0,0,0,0,0,0,0,0,0,0,0,0],"split_type":[0,0,0,0,0,0,0,0,0,0,0,0,0,0,0,0,0,0,0,0,0,0,0,0,0,0,0,0,0,0,0,0,0,0,0,0,0,0,0,0,0,0,0,0,0,0,0,0,0,0,0,0,0,0,0,0,0,0,0,0,0,0,0,0,0,0,0,0,0,0,0,0,0,0,0,0,0,0,0,0,0,0,0,0,0,0,0,0,0,0,0,0,0,0,0,0,0,0,0,0,0,0,0,0,0,0,0,0,0,0,0,0,0,0,0,0,0,0,0,0,0,0,0,0,0,0,0,0,0,0,0,0,0,0,0,0,0,0,0,0,0,0,0,0,0,0,0,0,0,0,0,0,0,0,0,0,0,0,0,0,0,0,0,0,0,0,0,0,0,0,0,0,0,0,0],"sum_hessian":[1.7811436E3,2.4728465E2,1.5338589E3,1.969954E2,5.028925E1,9.2543005E2,6.084288E2,3.5091835E1,1.6190358E2,2.8187998E1,2.2101254E1,8.11617E2,1.13813034E2,1.2846838E2,4.7996042E2,3.0428259E1,4.663575E0,1.2171779E2,4.0185783E1,2.7078094E1,1.1099024E0,1.9341387E1,2.759867E0,2.9410144E2,5.1751556E2,5.9248646E1,5.456439E1,4.300751E1,8.546087E1,2.1323593E2,2.667245E2,2.7708765E1,2.7194943E0,5.5631003E0,1.16154686E2,9.0575695E0,3.1128214E1,7.35596E0,1.9722136E1,6.401304E0,1.2940083E1,1.0743838E2,1.8666306E2,3.5510266E2,1.6241289E2,4.8071583E1,1.1177063E1,4.3651363E1,1.0913023E1,1.8746973E1,2.4260538E1,9.1555395E0,7.630533E1,2.3387608E1,1.8984831E2,2.5694162E2,9.782885E0,2.3276241E1,4.432524E0,1.4061397E0,1.3133546E0,2.6689203E0,2.89418E0,1.1460526E2,1.5494233E0,7.8725066E0,1.1850631E0,1.9430723E0,2.918514E1,4.9956794E0,2.3602808E0,1.5558907E1,4.163229E0,5.790097E0,7.1499853E0,2.239481E1,8.504357E1,1.6015411E2,2.650894E1,1.3105584E1,3.419971E2,2.4047918E1,1.3836497E2,1.0746758E1,3.7324825E1,2.0794058E0,9.097657E0,2.0869131E1,2.2782232E1,7.9690948E0,2.9439282E0,1.4780103E1,3.9668703E0,2.2156902E1,2.1036346E0,6.6987133E0,2.4568262E0,1.6759895E1,5.9545433E1,1.2500954E1,1.0886655E1,1.4652759E2,4.332074E1,3.683462E1,2.20107E2,1.5352675E0,2.1740973E1,2.0101519E0,2.4223726E0,1.261044E0,1.4078763E0,1.1178459E2,2.8206766E0,2.0660388E0,5.806468E0,1.7950372E0,2.7390104E1,2.5787325E0,2.416947E0,2.432139E0,1.3126767E1,1.8059769E0,2.357252E0,2.767796E0,3.0223014E0,2.6225038E0,4.5274816E0,6.184411E0,1.6210398E1,2.2741798E1,6.230177E1,1.03042534E2,5.7111584E1,8.609175E0,1.7899765E1,1.1124446E1,1.9811381E0,3.384286E2,3.5685077E0,8.2218075E0,1.5826111E1,7.6791626E1,6.1573353E1,8.871227E0,1.8755312E0,2.761329E1,9.711535E0,2.2182214E0,1.865091E1,1.9189554E1,3.592678E0,4.5974784E0,3.3716166E0,5.750937E0,9.029166E0,2.8779678E0,1.9278934E1,1.3305868E0,1.1262393E0,1.5025873E1,1.7340225E0,7.053495E0,5.249194E1,7.727849E0,4.773104E0,2.4349217E0,8.451733E0,1.4231929E2,4.2082944E0,2.7963873E1,1.5356866E1,1.3613052E1,2.322157E1,3.047672E1,1.8963026E2],"tree_param":{"num_deleted":"0","num_feature":"21","num_nodes":"175","size_leaf_vector":"1"}},{"base_weights":[-1.3912406E-3,4.6100608E-1,-1.4802592E-1,8.052957E-1,2.625671E-1,-4.4692475E-1,2.749157E-1,8.843218E-1,2.1257691E-1,-9.282027E-1,3.0908358E-1,-1.2126027E-1,-6.247163E-1,7.742935E-1,1.4043297E-1,1.0353098E0,6.7184734E-1,-6.442857E-1,5.5955154E-1,-1.2641485E-1,7.994725E-2,9.075658E-1,2.2033171E-1,-3.7740227E-2,-9.084328E-1,-8.3824426E-1,-3.260891E-1,3.067329E-1,1.0065258E0,3.4800828E-1,-1.9901699E-1,1.0607622E-2,1.059862E0,3.5474926E-1,8.23328E-1,-1.04530625E-1,4.1036118E-2,-1.1666013E-1,7.254118E-1,6.3791835E-1,1.1485665E0,-7.654591E-2,4.8691028E-1,-8.5003805E-1,4.9317814E-2,-1.0654559E0,8.5372835E-2,-8.7261516E-1,3.030277E-1,-3.763443E-1,1.1122718E0,-2.0533559E-1,6.959394E-1,7.116905E-1,1.0940225E0,7.780676E-2,6.2505513E-1,-8.722216E-2,-1.0400404E0,1.0698469E0,2.5349924E-2,-3.813356E-1,7.197118E-1,8.9721996E-1,-3.5778373E-2,-9.300529E-2,7.902505E-2,1.07079566E-1,1.4121616E-1,9.685042E-1,-3.207835E-3,2.5028566E-2,1.2659876E-1,4.0549272E-1,-3.4413648E-1,-1.0566217E-1,5.440739E-1,7.870776E-1,-1.230647E-1,-1.2699988E-1,9.651909E-2,-1.3696401E-1,5.579024E-3,-8.8945436E-1,7.103737E-1,-8.1039436E-2,5.5709136E-1,-1.6394635E-1,-7.095718E-1,2.0136523E-1,-1.04770616E-1,-6.3253385E-1,1.1072884E-1,8.472244E-1,-9.615001E-2,3.8495144E-1,1.04211204E-1,6.2060785E-1,1.1389829E0,-1.6651809E-1,4.823893E-1,7.18001E-1,-6.059448E-1,-1.145165E0,1.617041E-2,-1.5394728E-1,7.062794E-1,1.07942276E-1,3.0296553E-2,-1.7826945E-1,4.657655E-2,8.732876E-2,-2.5273645E-2,9.724934E-2,-2.0599429E-2,-9.976535E-2,8.957001E-2,1.10677294E-1,5.00712E-2,-1.3621104E-1,9.6061826E-2,8.432677E-2,-1.425409E-2,-6.256426E-2,7.1872845E-2,5.8053132E-2,-1.2192245E-1,4.7202436E-3,1.08430244E-1,-1.0091679E-2,3.3841535E-2,7.575353E-2,-1.0883101E-1,-8.058712E-2,-1.2725957E-1,-7.109853E-2,1.6721319E-1,-7.446123E-3,8.7304935E-2,-5.691523E-2,6.859699E-3,-1.1999442E-1,-2.9458676E-2,5.4931818E-3,-1.3903235E-1,-1.3080708E-2,9.861901E-2,-7.024206E-2,6.8656825E-2,1.0308527E-1,-2.9744217E-2,5.2263726E-2,1.1717945E-1,-8.702519E-2,7.1325186E-3,-1.5904893E-1,6.0319673E-2,8.353564E-2,-6.0534845E-3,-1.4010102E-1,3.1533763E-2,-1.5180163E-1,-1.5368313E-2,-1.5011127E-2,5.8713026E-2,3.3524968E-2,9.497397E-2],"categories":[],"categories_nodes":[],"categories_segments":[],"categories_sizes":[],"default_left":[0,0,0,0,0,0,0,0,0,0,0,0,0,0,0,0,0,0,0,0,0,0,0,0,0,0,0,0,0,0,0,0,0,0,0,0,0,0,0,0,0,0,0,0,0,0,0,0,0,0,0,0,0,0,0,0,0,0,0,0,0,0,0,0,0,0,0,0,0,0,0,0,0,0,0,0,0,0,0,0,0,0,0,0,0,0,0,0,0,0,0,0,0,0,0,0,0,0,0,0,0,0,0,0,0,0,0,0,0,0,0,0,0,0,0,0,0,0,0,0,0,0,0,0,0,0,0,0,0,0,0,0,0,0,0,0,0,0,0,0,0,0,0,0,0,0,0,0,0,0,0,0,0,0,0,0,0,0,0,0,0,0,0,0,0,0,0],"id":10,"left_children":[1,3,5,7,9,11,13,15,17,19,21,23,25,27,29,31,33,35,37,-1,-1,39,41,43,45,47,49,51,53,55,57,-1,59,61,63,-1,-1,65,67,69,71,73,75,77,79,81,-1,83,85,87,89,91,93,95,97,99,101,103,105,107,-1,109,111,113,-1,-1,-1,-1,115,117,119,-1,-1,121,123,-1,125,127,-1,-1,129,-1,131,133,135,-1,137,139,141,-1,-1,143,-1,145,-1,147,-1,149,151,153,155,157,159,161,163,-1,165,-1,-1,-1,-1,-1,-1,-1,-1,-1,-1,-1,-1,-1,-1,-1,-1,-1,-1,-1,-1,-1,-1,-1,-1,-1,-1,-1,-1,-1,-1,-1,-1,-1,-1,-1,-1,-1,-1,-1,-1,-1,-1,-1,-1,-1,-1,-1,-1,-1,-1,-1,-1,-1,-1,-1,-1,-1,-1,-1,-1],"loss_changes":[1.17945946E2,2.8402588E1,1.6708136E2,6.962204E0,1.5085562E1,4.4751114E1,3.6659603E1,3.6153564E0,6.0910735E0,6.9854727E0,1.3497488E1,1.8022215E1,3.1645035E1,1.2280014E1,3.0547752E1,1.6375961E0,2.526104E0,2.975126E0,1.683362E0,0E0,0E0,1.4106808E0,1.7914772E1,1.76748E1,8.187288E0,1.168837E1,1.5622362E1,8.097578E0,1.2083893E0,2.007191E1,1.5401737E1,0E0,3.2958984E-1,5.841768E0,3.720049E0,0E0,0E0,3.4415927E0,2.1863856E0,3.7790132E0,1.3884029E0,1.40364895E1,1.1088499E1,1.6042324E1,1.4205877E1,8.020359E0,0E0,8.17482E0,3.069973E0,1.4320526E1,1.6426712E1,1.0798507E1,6.557889E0,1.8107967E0,5.177841E-1,1.3643845E1,1.560294E1,1.6046804E1,1.7869207E1,2.1195221E-1,0E0,9.760759E0,2.3415332E0,3.2677937E0,0E0,0E0,0E0,0E0,5.5820923E0,2.0632458E-1,1.0552185E1,0E0,0E0,9.457096E0,2.134002E1,0E0,8.136673E0,1.0864568E0,0E0,0E0,1.0506286E1,0E0,6.1184154E0,7.9552765E0,6.020447E0,0E0,1.687191E0,1.1899944E1,1.5743664E1,0E0,0E0,7.485844E0,0E0,3.0539227E0,0E0,4.3809586E0,0E0,3.0136025E0,4.2601013E-1,1.4505778E1,1.3961131E1,1.1354134E1,7.6560082E0,4.5945244E0,1.2855065E1,0E0,1.3006067E-1,0E0,0E0,0E0,0E0,0E0,0E0,0E0,0E0,0E0,0E0,0E0,0E0,0E0,0E0,0E0,0E0,0E0,0E0,0E0,0E0,0E0,0E0,0E0,0E0,0E0,0E0,0E0,0E0,0E0,0E0,0E0,0E0,0E0,0E0,0E0,0E0,0E0,0E0,0E0,0E0,0E0,0E0,0E0,0E0,0E0,0E0,0E0,0E0,0E0,0E0,0E0,0E0,0E0,0E0,0E0,0E0,0E0,0E0,0E0,0E0],"parents":[2147483647,0,0,1,1,2,2,3,3,4,4,5,5,6,6,7,7,8,8,9,9,10,10,11,11,12,12,13,13,14,14,15,15,16,16,17,17,18,18,21,21,22,22,23,23,24,24,25,25,26,26,27,27,28,28,29,29,30,30,32,32,33,33,34,34,37,37,38,38,39,39,40,40,41,41,42,42,43,43,44,44,45,45,47,47,48,48,49,49,50,50,51,51,52,52,53,53,54,54,55,55,56,56,57,57,58,58,59,59,61,61,62,62,63,63,68,68,69,69,70,70,73,73,74,74,76,76,77,77,80,80,82,82,83,83,84,84,86,86,87,87,88,88,91,91,93,93,95,95,97,97,98,98,99,99,100,100,101,101,102,102,103,103,104,104,106,106],"right_children":[2,4,6,8,10,12,14,16,18,20,22,24,26,28,30,32,34,36,38,-1,-1,40,42,44,46,48,50,52,54,56,58,-1,60,62,64,-1,-1,66,68,70,72,74,76,78,80,82,-1,84,86,88,90,92,94,96,98,100,102,104,106,108,-1,110,112,114,-1,-1,-1,-1,116,118,120,-1,-1,122,124,-1,126,128,-1,-1,130,-1,132,134,136,-1,138,140,142,-1,-1,144,-1,146,-1,148,-1,150,152,154,156,158,160,162,164,-1,166,-1,-1,-1,-1,-1,-1,-1,-1,-1,-1,-1,-1,-1,-1,-1,-1,-1,-1,-1,-1,-1,-1,-1,-1,-1,-1,-1,-1,-1,-1,-1,-1,-1,-1,-1,-1,-1,-1,-1,-1,-1,-1,-1,-1,-1,-1,-1,-1,-1,-1,-1,-1,-1,-1,-1,-1,-1,-1,-1,-1],"split_conditions":[5E0,3E0,2E0,1E0,2E1,2E0,1E0,1.6666668E-2,3.2E1,1E0,1.38E0,4.35E0,2.5E1,-1E0,2.68E0,2.4E1,2.524674E0,2.625E0,0E0,-1.2641485E-1,7.994725E-2,7.2E-1,3.975E0,1.9E1,2.7E1,1E1,1.2E0,3.5058053E0,0E0,-1.6666668E-2,1.23333335E-1,1.0607622E-2,4.9E1,1.1E1,1.67E0,-1.04530625E-1,4.1036118E-2,2E0,1.7513868E0,-1.2511111E0,2E0,4E0,2.3E1,1E0,-7E0,1E0,8.5372835E-2,8E0,2.3E1,6.333333E-2,6E0,4E1,2.8E1,2.4E1,-8.75E-1,5E0,5.6E-1,-7.75E-1,1.67E0,1E0,2.5349924E-2,6.8333334E-1,3E0,1E0,-3.5778373E-2,-9.300529E-2,7.902505E-2,1.07079566E-1,4E0,4E0,1E0,2.5028566E-2,1.2659876E-1,-1E-1,3.5E1,-1.0566217E-1,4E1,3.64E0,-1.230647E-1,-1.2699988E-1,1E0,-1.3696401E-1,2.9E1,7E0,7E0,-8.1039436E-2,4.016667E0,-1.8E-1,1E0,2.0136523E-1,-1.04770616E-1,2.3E1,1.1072884E-1,-6E0,-9.615001E-2,2.58E0,1.04211204E-1,-2.0333333E0,1.9E1,2.1E1,1E0,1E0,2.5E1,3E0,5E0,-1.5394728E-1,2.9E1,1.07942276E-1,3.0296553E-2,-1.7826945E-1,4.657655E-2,8.732876E-2,-2.5273645E-2,9.724934E-2,-2.0599429E-2,-9.976535E-2,8.957001E-2,1.10677294E-1,5.00712E-2,-1.3621104E-1,9.6061826E-2,8.432677E-2,-1.425409E-2,-6.256426E-2,7.1872845E-2,5.8053132E-2,-1.2192245E-1,4.7202436E-3,1.08430244E-1,-1.0091679E-2,3.3841535E-2,7.575353E-2,-1.0883101E-1,-8.058712E-2,-1.2725957E-1,-7.109853E-2,1.6721319E-1,-7.446123E-3,8.7304935E-2,-5.691523E-2,6.859699E-3,-1.1999442E-1,-2.9458676E-2,5.4931818E-3,-1.3903235E-1,-1.3080708E-2,9.861901E-2,-7.024206E-2,6.8656825E-2,1.0308527E-1,-2.9744217E-2,5.2263726E-2,1.1717945E-1,-8.702519E-2,7.1325186E-3,-1.5904893E-1,